tree
version=v4
num_class=1
num_tree_per_iteration=1
label_index=0
max_feature_idx=22
objective=regression
feature_names=tempmax tempmin feelslikemax feelslikemin feelslike dew humidity precip precipprob precipcover snow snowdepth windgust windspeed winddir sealevelpressure cloudcover visibility solarradiation solarenergy uvindex severerisk moonphase
feature_infos=[-1.3:36.200000000000003] [-4.0999999999999996:21.199999999999999] [-5.5:39] [-7.2999999999999998:21.199999999999999] [-6.2999999999999998:29.600000000000001] [-6.0999999999999996:20.300000000000001] [51.600000000000001:95] [0:25.007999999999999] [0:100] [0:75] none none [14.4:90] [6.7999999999999998:40.700000000000003] [0.40000000000000002:358.19999999999999] [979.70000000000005:1042.8] [13:100] [5.0999999999999996:39.100000000000001] [0:159.90000000000001] [0:13.800000000000001] [0:8] none [0:0.97999999999999998]
tree_sizes=688 640 627 722 723 721 629 717 640 627 629 727 642 724 727 627 642 642 641 626 714 642 720 724 725 713 641 641 725 721 644 642 723 645 722 644 643 729 726 643 645 724 720 723 645 726 724 726 729 723 726 727 644 727 724 645

Tree=0
num_leaves=7
num_cat=0
split_feature=4 4 4 4 4 16
split_gain=8101.93 1482.81 1113.14 347.838 254.866 1.01462
threshold=13.550000000000002 4.9500000000000011 19.550000000000004 9.0500000000000025 16.850000000000005 90.800000000000026
decision_type=2 2 2 2 2 2
left_child=1 -1 4 -3 -2 -5
right_child=2 3 -4 5 -6 -7
leaf_value=13.051134804696721 13.240878971881772 13.13429232981667 13.355296479556946 13.184795714730326 13.290278920197025 13.181176857673751
leaf_weight=40 58 70 48 39 48 39
leaf_count=40 58 70 48 39 48 39
internal_value=13.208 13.1368 13.2919 13.16 13.2632 13.183
internal_weight=0 188 154 148 106 78
internal_count=342 188 154 148 106 78
is_linear=0
shrinkage=1


Tree=1
num_leaves=6
num_cat=0
split_feature=4 4 4 4 4
split_gain=8088.84 1444.1 1153.76 300.323 202.331
threshold=13.450000000000001 4.9500000000000011 19.150000000000002 8.8500000000000032 16.450000000000003
decision_type=2 2 2 2 2
left_child=1 -1 4 -3 -2
right_child=2 3 -4 -5 -6
leaf_value=-0.1549808247065198 0.027337432966288433 -0.073440896352639853 0.13651941732386139 -0.026955169548319096 0.072487697984555469
leaf_weight=41 52 64 61 77 48
leaf_count=41 52 64 61 77 48
internal_value=0 -0.0721431 0.0821658 -0.0480552 0.0490097
internal_weight=0 182 161 141 100
internal_count=343 182 161 141 100
is_linear=0
shrinkage=0.0158581


Tree=2
num_leaves=6
num_cat=0
split_feature=4 4 4 4 4
split_gain=7905.95 1295.28 1235.55 242.111 173.184
threshold=13.15 4.9500000000000011 18.700000000000006 9.0500000000000025 15.750000000000002
decision_type=2 2 2 2 2
left_child=1 -1 4 -3 -2
right_child=2 3 -4 -5 -6
leaf_value=-0.15252315206757444 0.018001300741594239 -0.071383325106000373 0.12702327219023585 -0.029047577323372278 0.060436557921693584
leaf_weight=41 46 70 72 66 51
leaf_count=41 46 70 72 66 51
internal_value=0 -0.0743926 0.0772547 -0.0508382 0.0403128
internal_weight=0 177 169 136 97
internal_count=346 177 169 136 97
is_linear=0
shrinkage=0.0158581


Tree=3
num_leaves=7
num_cat=0
split_feature=4 4 4 4 4 4
split_gain=7630.27 1380.44 1037.4 311.955 241.931 47.8852
threshold=13.550000000000002 4.9500000000000011 19.950000000000006 9.6500000000000004 17.050000000000004 7.3500000000000005
decision_type=2 2 2 2 2 2
left_child=1 -1 4 5 -2 -3
right_child=2 3 -4 -5 -6 -7
leaf_value=-0.15010445233819067 0.034040194312934431 -0.079241506284455282 0.14373855791103707 -0.020451467612875689 0.082039467589302875 -0.054852353776521076
leaf_weight=41 62 40 47 66 46 41
leaf_count=41 62 40 47 66 46 41
internal_value=0 -0.0687381 0.0815489 -0.0460438 0.0544845 -0.0668967
internal_weight=0 188 155 147 108 81
internal_count=343 188 155 147 108 81
is_linear=0
shrinkage=0.0158581


Tree=4
num_leaves=7
num_cat=0
split_feature=0 0 0 1 0 3
split_gain=6928.98 1206.33 986.714 282.693 192.097 37.5548
threshold=16.950000000000003 9.5500000000000025 24.250000000000004 8.5500000000000025 20.150000000000002 3.8500000000000001
decision_type=2 2 2 2 2 2
left_child=1 -1 4 5 -2 -3
right_child=2 3 -4 -5 -6 -7
leaf_value=-0.14351064979302616 0.022857387600944187 -0.073809953468788214 0.13173429018233732 -0.016749450953873458 0.067088136947825658 -0.052713804885329812
leaf_weight=40 43 41 55 55 58 44
leaf_count=40 43 41 55 55 58 44
internal_value=0 -0.0667074 0.0776886 -0.0447633 0.0482574 -0.0628898
internal_weight=0 180 156 140 101 85
internal_count=336 180 156 140 101 85
is_linear=0
shrinkage=0.0158581


Tree=5
num_leaves=7
num_cat=0
split_feature=2 2 2 1 2 3
split_gain=7091.47 1247.49 953.744 282.691 190.654 33.2483
threshold=16.950000000000003 7.2500000000000009 24.250000000000004 7.9500000000000011 20.150000000000002 3.6500000000000008
decision_type=2 2 2 2 2 2
left_child=1 -1 4 5 -2 -3
right_child=2 3 -4 -5 -6 -7
leaf_value=-0.14665334671944358 0.02236715953429478 -0.075653265305851022 0.12927006485365988 -0.021404245423626185 0.066420127812116342 -0.05533009690971883
leaf_weight=39 42 41 57 66 60 40
leaf_count=39 42 41 57 66 60 40
internal_value=0 -0.0669206 0.0773149 -0.0457667 0.0482808 -0.0656174
internal_weight=0 186 159 147 102 81
internal_count=345 186 159 147 102 81
is_linear=0
shrinkage=0.0158581


Tree=6
num_leaves=6
num_cat=0
split_feature=4 4 4 4 4
split_gain=6942.71 1164.14 1125.94 221.758 189.386
threshold=13.15 4.9500000000000011 18.950000000000003 9.0500000000000025 16.050000000000004
decision_type=2 2 2 2 2
left_child=1 -1 4 -3 -2
right_child=2 3 -4 -5 -6
leaf_value=-0.14331393367317835 0.019890888932633789 -0.067041616186614542 0.12502154200150159 -0.026980304868742734 0.062722067632084336
leaf_weight=41 54 70 64 69 50
leaf_count=41 54 70 64 69 50
internal_value=0 -0.0690582 0.0726883 -0.0471552 0.0404829
internal_weight=0 180 168 139 104
internal_count=348 180 168 139 104
is_linear=0
shrinkage=0.0158581


Tree=7
num_leaves=7
num_cat=0
split_feature=4 4 4 4 4 4
split_gain=6635 1221.78 899.324 290.137 191.349 58.1047
threshold=13.850000000000003 4.9500000000000011 19.950000000000006 10.250000000000002 17.050000000000004 7.6500000000000012
decision_type=2 2 2 2 2 2
left_child=1 -1 4 5 -2 -3
right_child=2 3 -4 -5 -6 -7
leaf_value=-0.14046005468028841 0.03313351945600583 -0.071728747048888514 0.1362519469101737 -0.01278221734432515 0.076354688588943953 -0.046382886161459129
leaf_weight=40 57 45 47 55 47 46
leaf_count=40 57 45 47 55 47 46
internal_value=0 -0.0628113 0.0786833 -0.0415374 0.0526663 -0.0589168
internal_weight=0 186 151 146 104 91
internal_count=337 186 151 146 104 91
is_linear=0
shrinkage=0.0158581


Tree=8
num_leaves=6
num_cat=0
split_feature=0 0 3 3 0
split_gain=6258.74 1019.67 1015.59 179.46 159.517
threshold=16.050000000000004 23.150000000000002 1.2500000000000002 5.6500000000000012 19.750000000000004
decision_type=2 2 2 2 2
left_child=2 4 -1 -4 -2
right_child=1 -3 3 -5 -6
leaf_value=-0.13839432460257567 0.014988831503045598 0.11368910980245614 -0.063167925708052006 -0.02603310417275256 0.055054374868348924
leaf_weight=39 49 72 72 60 51
leaf_count=39 49 72 72 60 51
internal_value=0 0.0681854 -0.0672954 -0.0462886 0.0354224
internal_weight=0 172 171 132 100
internal_count=343 172 171 132 100
is_linear=0
shrinkage=0.0158581


Tree=9
num_leaves=6
num_cat=0
split_feature=4 4 4 4 4
split_gain=6078.97 990.519 937.794 198.337 113.428
threshold=13.15 4.9500000000000011 18.350000000000005 9.0500000000000025 15.450000000000001
decision_type=2 2 2 2 2
left_child=1 -1 4 -3 -2
right_child=2 3 -4 -5 -6
leaf_value=-0.13478973188986706 0.014180891229587789 -0.064159199207549741 0.10892830700379855 -0.025573024251798641 0.049764893574502957
leaf_weight=40 41 67 77 67 50
leaf_count=40 41 67 77 67 50
internal_value=0 -0.0655385 0.0681975 -0.0448662 0.0337327
internal_weight=0 174 168 134 91
internal_count=342 174 168 134 91
is_linear=0
shrinkage=0.0158581


Tree=10
num_leaves=6
num_cat=0
split_feature=4 4 4 4 4
split_gain=6170.62 1014.31 1005.85 246.73 190.419
threshold=13.15 4.9500000000000011 19.950000000000006 16.750000000000004 9.0500000000000025
decision_type=2 2 2 2 2
left_child=1 -1 3 -2 -3
right_child=2 4 -4 -5 -6
leaf_value=-0.13465631026652822 0.023418250737845023 -0.062893725659990879 0.12988228052857465 0.068896203542887127 -0.025348424072703799
leaf_weight=41 66 70 48 55 66
leaf_count=41 66 70 48 55 66
internal_value=0 -0.0655171 0.0684574 0.0440902 -0.0446733
internal_weight=0 177 169 121 136
internal_count=346 177 169 121 136
is_linear=0
shrinkage=0.0158581


Tree=11
num_leaves=7
num_cat=0
split_feature=4 4 4 4 4 4
split_gain=5877.02 1092.85 828.893 275.242 199.046 73.7823
threshold=13.850000000000003 4.9500000000000011 20.450000000000003 11.050000000000002 17.050000000000004 7.6500000000000012
decision_type=2 2 2 2 2 2
left_child=1 -1 4 5 -2 -3
right_child=2 3 -4 -5 -6 -7
leaf_value=-0.13190444756505987 0.030981174694979897 -0.068566842362716776 0.13327158442403561 -0.0082657130706701876 0.073156180080708483 -0.041460977121838313
leaf_weight=40 60 46 42 50 53 56
leaf_count=40 60 46 42 50 53 56
internal_value=0 -0.0581532 0.0731201 -0.0387448 0.0507625 -0.0536854
internal_weight=0 192 155 152 113 102
internal_count=347 192 155 152 113 102
is_linear=0
shrinkage=0.0158581


Tree=12
num_leaves=6
num_cat=0
split_feature=0 3 0 1 0
split_gain=5490.8 956.428 792.459 218.177 147.549
threshold=16.950000000000003 1.3500000000000003 24.250000000000004 7.9500000000000011 20.150000000000002
decision_type=2 2 2 2 2
left_child=1 -1 4 -3 -2
right_child=2 3 -4 -5 -6
leaf_value=-0.12642687965272659 0.020551789650187727 -0.058286514987513208 0.11743063275826354 -0.018369646808505443 0.058780117399760037
leaf_weight=41 43 72 55 66 62
leaf_count=41 43 72 55 66 62
internal_value=0 -0.0591764 0.0686676 -0.0391959 0.0431248
internal_weight=0 179 160 138 105
internal_count=339 179 160 138 105
is_linear=0
shrinkage=0.0158581


Tree=13
num_leaves=7
num_cat=0
split_feature=4 4 4 4 4 4
split_gain=5384.46 991.054 741.492 240.393 185.403 66.1902
threshold=13.850000000000003 4.9500000000000011 20.450000000000003 11.050000000000002 17.050000000000004 7.6500000000000012
decision_type=2 2 2 2 2 2
left_child=1 -1 4 5 -2 -3
right_child=2 3 -4 -5 -6 -7
leaf_value=-0.1265283385431773 0.029856081489798913 -0.066125260860633667 0.12943817912039038 -0.008408968847575856 0.071264125275895471 -0.040233960374121469
leaf_weight=40 57 44 40 48 52 57
leaf_count=40 57 44 40 48 52 57
internal_value=0 -0.0564427 0.071041 -0.0376275 0.0496105 -0.0515135
internal_weight=0 189 149 149 109 101
internal_count=338 189 149 149 109 101
is_linear=0
shrinkage=0.0158581


Tree=14
num_leaves=7
num_cat=0
split_feature=4 4 4 4 4 4
split_gain=5257.42 992.396 738.464 244.506 183.908 61.8636
threshold=13.850000000000003 4.9500000000000011 20.450000000000003 11.050000000000002 17.050000000000004 7.6500000000000012
decision_type=2 2 2 2 2 2
left_child=1 -1 4 5 -2 -3
right_child=2 3 -4 -5 -6 -7
leaf_value=-0.12631544061841118 0.029368150118255932 -0.064469296778322402 0.12763682734855369 -0.0074688716893989053 0.070234135221385038 -0.039595932411558531
leaf_weight=39 58 45 41 49 53 57
leaf_count=39 58 45 41 49 53 57
internal_value=0 -0.0550022 0.0701245 -0.0365834 0.0488809 -0.0505697
internal_weight=0 190 152 151 111 102
internal_count=342 190 152 151 111 102
is_linear=0
shrinkage=0.0158581


Tree=15
num_leaves=6
num_cat=0
split_feature=4 4 4 4 4
split_gain=5180.06 876.424 857.808 217.71 166.294
threshold=13.15 4.9500000000000011 19.950000000000006 16.550000000000004 9.0500000000000025
decision_type=2 2 2 2 2
left_child=1 -1 3 -2 -3
right_child=2 4 -4 -5 -6
leaf_value=-0.12529389946451394 0.02054134448423325 -0.058147612704229489 0.12106903890498179 0.062771910396332897 -0.023327811640715613
leaf_weight=40 64 70 46 59 68
leaf_count=40 64 70 46 59 68
internal_value=0 -0.059935 0.0626474 0.0407984 -0.0409901
internal_weight=0 178 169 123 138
internal_count=347 178 169 123 138
is_linear=0
shrinkage=0.0158581


Tree=16
num_leaves=6
num_cat=0
split_feature=2 1 2 1 2
split_gain=4991.33 835.568 815.367 145.12 120.912
threshold=16.050000000000004 3.6500000000000008 23.150000000000002 7.8500000000000005 19.750000000000004
decision_type=2 2 2 2 2
left_child=1 -1 4 -3 -2
right_child=2 3 -4 -5 -6
leaf_value=-0.12349714954110134 0.013190988755176821 -0.055991806378794327 0.10068987533490108 -0.022852590116274777 0.048073047120526395
leaf_weight=40 49 73 73 61 51
leaf_count=40 49 73 73 61 51
internal_value=0 -0.0598928 0.0603958 -0.0409061 0.0309809
internal_weight=0 174 173 134 100
internal_count=347 174 173 134 100
is_linear=0
shrinkage=0.0158581


Tree=17
num_leaves=6
num_cat=0
split_feature=4 4 4 4 4
split_gain=4709.58 759.51 759.312 175.542 161.589
threshold=13.350000000000003 19.550000000000004 4.9500000000000011 16.250000000000004 9.0500000000000025
decision_type=2 2 2 2 2
left_child=2 3 -1 -2 -4
right_child=1 -3 4 -5 -6
leaf_value=-0.11815278728134251 0.018476601204327307 0.11387477072505697 -0.056191715409146158 0.057887983852838686 -0.021994445285437945
leaf_weight=39 54 49 69 60 70
leaf_count=39 54 49 69 60 70
internal_value=0 0.0616621 -0.0563194 0.0392195 -0.0389702
internal_weight=0 163 178 114 139
internal_count=341 163 178 114 139
is_linear=0
shrinkage=0.0158581


Tree=18
num_leaves=6
num_cat=0
split_feature=4 4 4 4 4
split_gain=4654.33 787.279 781.612 138.173 134.26
threshold=12.950000000000001 18.950000000000003 4.9500000000000011 15.300000000000002 8.1500000000000004
decision_type=2 2 2 2 2
left_child=2 3 -1 -2 -4
right_child=1 -3 4 -5 -6
leaf_value=-0.1200983632763185 0.0095001095475652671 0.10343802198039742 -0.058832542100296009 0.046676375209250456 -0.026561553957334973
leaf_weight=40 41 62 56 65 77
leaf_count=40 41 62 56 65 77
internal_value=0 0.0585515 -0.0586349 0.032297 -0.0401495
internal_weight=0 168 173 106 133
internal_count=341 168 173 106 133
is_linear=0
shrinkage=0.0158581


Tree=19
num_leaves=6
num_cat=0
split_feature=4 1 4 4 4
split_gain=4568.81 787.516 778.99 176.687 146.36
threshold=13.15 3.6500000000000008 19.550000000000004 16.250000000000004 9.0500000000000025
decision_type=2 2 2 2 2
left_child=1 -1 3 -2 -3
right_child=2 4 -4 -5 -6
leaf_value=-0.11958179203772711 0.017265955048156464 -0.054974362085938838 0.11223560918719731 0.056242788878297173 -0.022308080881754292
leaf_weight=39 58 70 49 59 68
leaf_count=39 58 70 49 59 68
internal_value=0 -0.0566604 0.0591526 0.036921 -0.038878
internal_weight=0 177 166 117 138
internal_count=343 177 166 117 138
is_linear=0
shrinkage=0.0158581


Tree=20
num_leaves=7
num_cat=0
split_feature=4 4 4 4 4 4
split_gain=4412.63 830.893 604.728 229.238 131.518 53.2527
threshold=14.15 4.9500000000000011 20.450000000000003 11.050000000000002 17.550000000000004 7.3500000000000005
decision_type=2 2 2 2 2 2
left_child=1 -1 4 5 -2 -3
right_child=2 3 -4 -5 -6 -7
leaf_value=-0.11355584379666391 0.029694746119654798 -0.060938999032737452 0.11656299985178194 -0.0057437091759511118 0.065251661390324331 -0.037430370754225568
leaf_weight=40 59 39 42 53 47 64
leaf_count=40 59 39 42 53 47 64
internal_value=0 -0.0490759 0.0656386 -0.0325423 0.0454607 -0.0463319
internal_weight=0 196 148 156 106 103
internal_count=344 196 148 156 106 103
is_linear=0
shrinkage=0.0158581


Tree=21
num_leaves=6
num_cat=0
split_feature=4 4 4 4 4
split_gain=4300.78 740.087 707.196 202.815 113.04
threshold=12.950000000000001 20.250000000000004 4.9500000000000011 16.750000000000004 8.1500000000000004
decision_type=2 2 2 2 2
left_child=2 3 -1 -2 -4
right_child=1 -3 4 -5 -6
leaf_value=-0.11519780531759384 0.018650074401805185 0.11215143152547216 -0.055629250697428974 0.059016279417864075 -0.025538257345686304
leaf_weight=39 68 45 54 58 75
leaf_count=39 68 45 54 58 75
internal_value=0 0.0569474 -0.0560245 0.0372315 -0.0381346
internal_weight=0 171 168 126 129
internal_count=339 171 168 126 129
is_linear=0
shrinkage=0.0158581


Tree=22
num_leaves=7
num_cat=0
split_feature=4 4 1 4 4 4
split_gain=4101.16 728.273 655.738 170.86 104.576 85.8474
threshold=12.450000000000001 18.150000000000002 3.6500000000000008 20.450000000000003 8.1500000000000004 14.950000000000001
decision_type=2 2 2 2 2 2
left_child=2 5 -1 -3 -4 -2
right_child=1 3 4 -5 -6 -7
leaf_value=-0.11317487779316134 0.0068478184507106488 0.064913316097440985 -0.055130603639743134 0.11098160750248799 -0.026466269969894599 0.037267759098131056
leaf_weight=39 43 40 57 41 73 51
leaf_count=39 43 40 57 41 73 51
internal_value=0 0.0533826 -0.0561441 0.0882322 -0.0390346 0.0233523
internal_weight=0 175 169 81 130 94
internal_count=344 175 169 81 130 94
is_linear=0
shrinkage=0.0158581


Tree=23
num_leaves=7
num_cat=0
split_feature=0 2 1 0 1 12
split_gain=3908.14 693.233 631.981 157.256 116.112 5.46747
threshold=16.050000000000004 7.2500000000000009 15.350000000000003 20.150000000000002 7.9500000000000011 45.350000000000001
decision_type=2 2 2 2 2 2
left_child=1 -1 3 -2 5 -3
right_child=2 4 -4 -5 -6 -7
leaf_value=-0.112234209963658 0.012049934562982955 -0.053227651971404381 0.098991237379179184 0.049249766377760407 -0.019400300197420652 -0.044828134936327986
leaf_weight=39 51 39 53 65 58 39
leaf_count=39 51 39 53 65 58 39
internal_value=0 -0.0532948 0.0536234 0.0328948 -0.0363928 -0.0490281
internal_weight=0 175 169 116 136 78
internal_count=344 175 169 116 136 78
is_linear=0
shrinkage=0.0158581


Tree=24
num_leaves=7
num_cat=0
split_feature=4 4 4 4 4 4
split_gain=3891.57 754.446 514.883 161.072 105.275 17.7291
threshold=14.250000000000002 6.4500000000000011 20.450000000000003 11.050000000000002 17.550000000000004 8.4500000000000011
decision_type=2 2 2 2 2 2
left_child=1 -1 4 5 -2 -3
right_child=2 3 -4 -5 -6 -7
leaf_value=-0.091792636496613164 0.028528099461269277 -0.04651680912027583 0.10970023322799255 -0.0041131304299973854 0.060986766099291975 -0.031848114049280986
leaf_weight=61 54 40 42 56 47 43
leaf_count=61 54 40 42 56 47 43
internal_value=0 -0.0452994 0.0630374 -0.0248957 0.0436328 -0.0389175
internal_weight=0 200 143 139 101 83
internal_count=343 200 143 139 101 83
is_linear=0
shrinkage=0.0158581


Tree=25
num_leaves=7
num_cat=0
split_feature=4 1 4 4 4 4
split_gain=3768.23 744.86 516.659 201.201 115.591 46.5591
threshold=14.15 3.6500000000000008 20.450000000000003 11.050000000000002 17.550000000000004 7.6500000000000012
decision_type=2 2 2 2 2 2
left_child=1 -1 4 5 -2 -3
right_child=2 3 -4 -5 -6 -7
leaf_value=-0.10763689581427711 0.027185130760726674 -0.054479042011873952 0.10798102396551874 -0.0050553155169869605 0.060013916087420481 -0.033194483767718906
leaf_weight=39 60 48 41 53 49 56
leaf_count=39 60 48 41 53 49 56
internal_value=0 -0.0456108 0.0599937 -0.0302028 0.0419432 -0.0430183
internal_weight=0 196 150 157 109 104
internal_count=346 196 150 157 109 104
is_linear=0
shrinkage=0.0158581


Tree=26
num_leaves=6
num_cat=0
split_feature=4 4 4 4 4
split_gain=3534 679.063 451.219 134.887 94.7828
threshold=14.250000000000002 6.6500000000000012 20.450000000000003 11.050000000000002 17.550000000000004
decision_type=2 2 2 2 2
left_child=1 -1 4 -3 -2
right_child=2 3 -4 -5 -6
leaf_value=-0.084564588900645374 0.028488676190620347 -0.036254501602276119 0.10545755730201083 -0.0042329000720029994 0.058984162395640111
leaf_weight=66 55 77 40 58 48
leaf_count=66 55 77 40 58 48
internal_value=0 -0.0428776 0.060255 -0.0224971 0.0427003
internal_weight=0 201 143 135 103
internal_count=344 201 143 135 103
is_linear=0
shrinkage=0.0158581


Tree=27
num_leaves=6
num_cat=0
split_feature=4 4 1 4 4
split_gain=3528.24 634.33 569.165 102.064 87.9999
threshold=12.450000000000001 18.700000000000006 3.6500000000000008 15.300000000000002 8.1500000000000004
decision_type=2 2 2 2 2
left_child=2 3 -1 -2 -4
right_child=1 -3 4 -5 -6
leaf_value=-0.10497320279036813 0.0072380148047272701 0.08571932117176416 -0.050665551172262943 0.03868056799190224 -0.024370922719850304
leaf_weight=39 47 72 57 58 73
leaf_count=39 47 72 57 58 73
internal_value=0 0.049466 -0.0518403 0.0246064 -0.0359002
internal_weight=0 177 169 105 130
internal_count=346 177 169 105 130
is_linear=0
shrinkage=0.0158581


Tree=28
num_leaves=7
num_cat=0
split_feature=0 2 0 3 1 3
split_gain=3291.54 638.134 489.04 127.202 109.564 24.5211
threshold=16.950000000000003 7.8500000000000005 25.050000000000004 7.2500000000000009 13.850000000000003 3.8500000000000001
decision_type=2 2 2 2 2 2
left_child=1 -1 4 5 -2 -3
right_child=2 3 -4 -5 -6 -7
leaf_value=-0.10065846657444691 0.023145978066380517 -0.049380679197867129 0.095110017097423089 -0.0076398437884744258 0.056069016295950916 -0.033296505808861204
leaf_weight=41 73 40 48 45 39 59
leaf_count=41 73 40 48 45 39 59
internal_value=0 -0.0454625 0.0527604 -0.0297468 0.0346104 -0.0397953
internal_weight=0 185 160 144 112 99
internal_count=345 185 160 144 112 99
is_linear=0
shrinkage=0.0158581


Tree=29
num_leaves=7
num_cat=0
split_feature=4 4 4 4 4 4
split_gain=3283.21 688.91 436.616 211.606 74.9534 40.2536
threshold=14.450000000000001 4.9500000000000011 20.450000000000003 11.050000000000002 17.550000000000004 7.3500000000000005
decision_type=2 2 2 2 2 2
left_child=1 -1 4 5 -2 -3
right_child=2 3 -4 -5 -6 -7
leaf_value=-0.1005408413305099 0.028246224154727839 -0.052665115954421471 0.10264107343488216 -0.0029827976643897682 0.055912550071106147 -0.03238552092333976
leaf_weight=39 53 40 41 61 46 64
leaf_count=39 53 40 41 61 46 64
internal_value=0 -0.0405999 0.059124 -0.0264318 0.0411014 -0.0401855
internal_weight=0 204 140 165 99 104
internal_count=344 204 140 165 99 104
is_linear=0
shrinkage=0.0158581


Tree=30
num_leaves=6
num_cat=0
split_feature=4 4 1 4 4
split_gain=3229.05 598.228 544.384 111.411 77.9425
threshold=12.450000000000001 18.950000000000003 3.6500000000000008 15.300000000000002 8.8500000000000032
decision_type=2 2 2 2 2
left_child=2 3 -1 -2 -4
right_child=1 -3 4 -5 -6
leaf_value=-0.10155982994560038 0.0068536299257619783 0.086230890347349626 -0.045990033835617908 0.03890284583326005 -0.021330050745654947
leaf_weight=39 47 64 66 65 63
leaf_count=39 47 64 66 65 63
internal_value=0 0.0475546 -0.0496429 0.0254537 -0.0339469
internal_weight=0 176 168 112 129
internal_count=344 176 168 112 129
is_linear=0
shrinkage=0.0158581


Tree=31
num_leaves=6
num_cat=0
split_feature=4 4 4 4 4
split_gain=3120.02 597.062 521.367 152.877 75.4748
threshold=12.450000000000001 20.250000000000004 4.9500000000000011 16.050000000000004 8.1500000000000004
decision_type=2 2 2 2 2
left_child=2 3 -1 -2 -4
right_child=1 -3 4 -5 -6
leaf_value=-0.099261932908484812 0.01140769571953118 0.097287004903278879 -0.047375228231978983 0.046107304780749876 -0.022752697617783865
leaf_weight=40 61 44 56 67 71
leaf_count=40 61 44 56 67 71
internal_value=0 0.0468937 -0.0493352 0.0295708 -0.03361
internal_weight=0 172 167 128 127
internal_count=339 172 167 128 127
is_linear=0
shrinkage=0.0158581


Tree=32
num_leaves=7
num_cat=0
split_feature=4 1 4 4 4 2
split_gain=2999.11 556.409 522.732 128.243 105.143 9.73598
threshold=13.350000000000003 3.6500000000000008 20.450000000000003 16.850000000000005 9.6500000000000004 11.050000000000002
decision_type=2 2 2 2 2 2
left_child=1 -1 3 -2 5 -3
right_child=2 4 -4 -5 -6 -7
leaf_value=-0.098193992692053242 0.017859942301210078 -0.047817562594957251 0.10002390248831317 0.050720437509766569 -0.014340498715863889 -0.036681181945625439
leaf_weight=39 64 40 39 56 59 39
leaf_count=39 64 40 39 56 59 39
internal_value=0 -0.0453049 0.0495871 0.0331949 -0.0303578 -0.04232
internal_weight=0 177 159 120 138 79
internal_count=336 177 159 120 138 79
is_linear=0
shrinkage=0.0158581


Tree=33
num_leaves=6
num_cat=0
split_feature=4 4 2 4 4
split_gain=2888.87 526.971 447.194 99.7642 64.7577
threshold=12.450000000000001 18.950000000000003 7.8500000000000005 15.300000000000002 8.1500000000000004
decision_type=2 2 2 2 2
left_child=2 3 -1 -2 -4
right_child=1 -3 4 -5 -6
leaf_value=-0.092828290148598322 0.0063980101055831629 0.081655769143745935 -0.045351271320169098 0.036820563284563256 -0.02235677920761589
leaf_weight=41 46 63 55 66 70
leaf_count=41 46 63 55 66 70
internal_value=0 0.0449646 -0.0473813 0.0243256 -0.0324745
internal_weight=0 175 166 112 125
internal_count=341 175 166 112 125
is_linear=0
shrinkage=0.0158581


Tree=34
num_leaves=7
num_cat=0
split_feature=2 1 1 2 2 1
split_gain=2732.7 545.5 416.275 110.341 87.593 25.8811
threshold=17.050000000000004 3.9500000000000006 15.550000000000002 13.450000000000001 21.550000000000004 6.7500000000000009
decision_type=2 2 2 2 2 2
left_child=1 -1 4 5 -2 -3
right_child=2 3 -4 -5 -6 -7
leaf_value=-0.092500578956080604 0.018209508328753288 -0.046117845440504859 0.087073834266022207 -0.0078521808058259306 0.046967334917623137 -0.02926773937095728
leaf_weight=40 57 41 50 52 50 52
leaf_count=40 57 41 50 52 50 52
internal_value=0 -0.0406548 0.0492996 -0.0263523 0.0316479 -0.0366964
internal_weight=0 185 157 145 107 93
internal_count=342 185 157 145 107 93
is_linear=0
shrinkage=0.0158581


Tree=35
num_leaves=6
num_cat=0
split_feature=1 3 1 6 3
split_gain=2514.6 458.572 419.445 84.0165 70.7642
threshold=10.050000000000002 1.3500000000000003 15.350000000000003 71.550000000000011 5.8500000000000005
decision_type=2 2 2 2 2
left_child=1 -1 3 -2 -3
right_child=2 4 -4 -5 -6
leaf_value=-0.088840817384665718 0.042610905535114506 -0.038084297950522532 0.081819726951808974 0.015510897742661256 -0.014334689519095015
leaf_weight=41 51 74 51 66 55
leaf_count=41 51 74 51 66 55
internal_value=0 -0.0426421 0.0438673 0.0273238 -0.0279586
internal_weight=0 170 168 117 129
internal_count=338 170 168 117 129
is_linear=0
shrinkage=0.0158581


Tree=36
num_leaves=6
num_cat=0
split_feature=0 2 0 0 1
split_gain=2587.27 465.078 462.597 87.1558 69.2543
threshold=16.050000000000004 7.8500000000000005 24.250000000000004 19.750000000000004 7.9500000000000011
decision_type=2 2 2 2 2
left_child=1 -1 3 -2 -3
right_child=2 4 -4 -5 -6
leaf_value=-0.090477126195914331 0.00935015708914156 -0.038869359683059081 0.081027321046644118 0.03771428856981366 -0.015793552588937994
leaf_weight=40 48 75 57 63 58
leaf_count=40 48 75 57 63 58
internal_value=0 -0.0430656 0.0443059 0.0254488 -0.0288063
internal_weight=0 173 168 111 133
internal_count=341 173 168 111 133
is_linear=0
shrinkage=0.0158581


Tree=37
num_leaves=7
num_cat=0
split_feature=4 0 4 4 4 4
split_gain=2565.12 523.561 347.581 159.032 59.0466 27.7999
threshold=14.450000000000001 9.5500000000000025 20.450000000000003 11.050000000000002 17.550000000000004 7.6500000000000012
decision_type=2 2 2 2 2 2
left_child=1 -1 4 5 -2 -3
right_child=2 3 -4 -5 -6 -7
leaf_value=-0.086835732403334809 0.024776648950501357 -0.044363337709933823 0.090598667094740876 -0.0028172766071332296 0.049056990270477253 -0.027623782085761574
leaf_weight=40 53 45 42 62 48 56
leaf_count=40 53 45 42 62 48 56
internal_value=0 -0.0354257 0.0522593 -0.0228096 0.0363159 -0.0350821
internal_weight=0 203 143 163 101 101
internal_count=346 203 143 163 101 101
is_linear=0
shrinkage=0.0158581


Tree=38
num_leaves=7
num_cat=0
split_feature=4 4 4 4 4 4
split_gain=2479.91 501.838 331.127 126.041 56.657 15.8942
threshold=14.450000000000001 5.6000000000000005 20.450000000000003 11.050000000000002 17.550000000000004 7.9500000000000011
decision_type=2 2 2 2 2 2
left_child=1 -1 4 5 -2 -3
right_child=2 3 -4 -5 -6 -7
leaf_value=-0.079620241869587646 0.024633472364760347 -0.040004518875248037 0.089161959958054635 -0.0029136465227076669 0.048525870396301143 -0.026651082520442737
leaf_weight=48 52 40 42 60 48 51
leaf_count=48 52 40 42 60 48 51
internal_value=0 -0.0349549 0.0517959 -0.0207564 0.0361019 -0.0325209
internal_weight=0 199 142 151 100 91
internal_count=341 199 142 151 100 91
is_linear=0
shrinkage=0.0158581


Tree=39
num_leaves=6
num_cat=0
split_feature=2 5 2 2 2
split_gain=2416.73 455.991 421.957 98.9376 65.5648
threshold=16.050000000000004 2.7500000000000004 25.050000000000004 20.150000000000002 12.250000000000002
decision_type=2 2 2 2 2
left_child=1 -1 3 -2 -3
right_child=2 4 -4 -5 -6
leaf_value=-0.089428261278988549 0.01058568590086535 -0.037996905197383003 0.081429851944073636 0.039191098491222577 -0.01588910221826375
leaf_weight=39 55 74 49 68 62
leaf_count=39 55 74 49 68 62
internal_value=0 -0.0416265 0.0420773 0.0264001 -0.0279184
internal_weight=0 175 172 123 136
internal_count=347 175 172 123 136
is_linear=0
shrinkage=0.0158581


Tree=40
num_leaves=6
num_cat=0
split_feature=4 4 5 4 4
split_gain=2405.93 456.845 411.935 131.145 55.8889
threshold=12.450000000000001 20.450000000000003 2.7500000000000004 16.050000000000004 8.8500000000000032
decision_type=2 2 2 2 2
left_child=2 3 -1 -2 -4
right_child=1 -3 4 -5 -6
leaf_value=-0.088010115478454165 0.0096893402157821745 0.086536468800269897 -0.039080840520392686 0.04095619474137923 -0.018173852381703316
leaf_weight=39 62 42 68 74 61
leaf_count=39 62 42 68 74 61
internal_value=0 0.0408206 -0.0428484 0.0267022 -0.0291947
internal_weight=0 178 168 136 129
internal_count=346 178 168 136 129
is_linear=0
shrinkage=0.0158581


Tree=41
num_leaves=7
num_cat=0
split_feature=0 2 1 0 1 0
split_gain=2273.25 434.53 393.606 96.2473 61.1063 10.6294
threshold=16.050000000000004 7.2500000000000009 15.550000000000002 20.150000000000002 7.9500000000000011 11.450000000000001
decision_type=2 2 2 2 2 2
left_child=1 -1 3 -2 5 -3
right_child=2 4 -4 -5 -6 -7
leaf_value=-0.086844016258692813 0.008538638491390662 -0.041906809119277244 0.077948271456418167 0.037432711913805733 -0.014685300300210962 -0.03027119605253684
leaf_weight=39 50 39 51 69 59 40
leaf_count=39 50 39 51 69 59 40
internal_value=0 -0.0401051 0.0410893 0.0252924 -0.0268961 -0.0360155
internal_weight=0 177 170 119 138 79
internal_count=347 177 170 119 138 79
is_linear=0
shrinkage=0.0158581


Tree=42
num_leaves=7
num_cat=0
split_feature=4 1 4 4 4 4
split_gain=2168.7 397.86 388.467 62.994 48.546 12.7122
threshold=12.450000000000001 3.6500000000000008 18.700000000000006 15.300000000000002 9.6500000000000004 7.3500000000000005
decision_type=2 2 2 2 2 2
left_child=1 -1 3 -2 5 -3
right_child=2 4 -4 -5 -6 -7
leaf_value=-0.086052146346674324 0.0051903957999983883 -0.041691056441785689 0.067578888931671285 0.030040235492480919 -0.015376844111073937 -0.029117032762928263
leaf_weight=39 46 42 69 58 47 39
leaf_count=39 46 42 69 58 47 39
internal_value=0 -0.0417089 0.038405 0.019049 -0.0281978 -0.035637
internal_weight=0 167 173 104 128 81
internal_count=340 167 173 104 128 81
is_linear=0
shrinkage=0.0158581


Tree=43
num_leaves=7
num_cat=0
split_feature=4 2 4 4 4 4
split_gain=2145.66 418.584 363.143 91.8048 72.8524 14.6496
threshold=13.350000000000003 7.2500000000000009 20.450000000000003 17.050000000000004 9.6500000000000004 7.3500000000000005
decision_type=2 2 2 2 2 2
left_child=1 -1 3 -2 5 -3
right_child=2 4 -4 -5 -6 -7
leaf_value=-0.084264584272751061 0.015685130199135321 -0.041867487643379657 0.082074185453193393 0.043819696025136246 -0.012330929623171422 -0.02845717946770436
leaf_weight=39 70 42 41 50 60 40
leaf_count=39 70 42 41 50 60 40
internal_value=0 -0.0382483 0.0413293 0.027408 -0.0256098 -0.035326
internal_weight=0 181 161 120 142 82
internal_count=342 181 161 120 142 82
is_linear=0
shrinkage=0.0158581


Tree=44
num_leaves=6
num_cat=0
split_feature=2 1 2 2 2
split_gain=2065.39 395.432 367.233 83.0929 53.8298
threshold=16.050000000000004 3.6500000000000008 25.050000000000004 20.150000000000002 12.250000000000002
decision_type=2 2 2 2 2
left_child=1 -1 3 -2 -3
right_child=2 4 -4 -5 -6
leaf_value=-0.082145258178025315 0.0097490404251753676 -0.034743694331919317 0.075223127357680747 0.036051349442596609 -0.014671527512330943
leaf_weight=40 55 72 50 67 63
leaf_count=40 55 72 50 67 63
internal_value=0 -0.0383525 0.039028 0.0241938 -0.0253767
internal_weight=0 175 172 122 135
internal_count=347 175 172 122 135
is_linear=0
shrinkage=0.0158581


Tree=45
num_leaves=7
num_cat=0
split_feature=4 5 4 4 4 4
split_gain=2000.59 480.497 268.788 122.831 45.9163 18.6166
threshold=14.450000000000001 2.7500000000000004 20.450000000000003 11.050000000000002 17.550000000000004 7.3500000000000005
decision_type=2 2 2 2 2 2
left_child=1 -1 4 5 -2 -3
right_child=2 3 -4 -5 -6 -7
leaf_value=-0.082047321549238675 0.021535543454280284 -0.038753899368049467 0.08031305607814232 -0.0020372872795968366 0.043263437816409588 -0.024939741887389764
leaf_weight=39 51 42 41 60 47 59
leaf_count=39 51 42 41 60 47 59
internal_value=0 -0.0321062 0.0462199 -0.0200085 0.0319562 -0.0306844
internal_weight=0 200 139 161 98 101
internal_count=339 200 139 161 98 101
is_linear=0
shrinkage=0.0158581


Tree=46
num_leaves=7
num_cat=0
split_feature=2 2 2 3 1 2
split_gain=1935.02 419.009 303.901 81.0326 64.2709 17.255
threshold=17.050000000000004 7.2500000000000009 25.550000000000004 7.2500000000000009 12.550000000000002 11.450000000000001
decision_type=2 2 2 2 2 2
left_child=1 -1 4 5 -2 -3
right_child=2 3 -4 -5 -6 -7
leaf_value=-0.08070928176069013 0.01413217280437986 -0.038216826255667961 0.077490948016696537 -0.00509434728259427 0.038046964111480744 -0.024913360961028724
leaf_weight=39 50 41 42 47 65 61
leaf_count=39 50 41 42 47 65 61
internal_value=0 -0.0344348 0.0409829 -0.0223225 0.0276493 -0.0302609
internal_weight=0 188 157 149 115 102
internal_count=345 188 157 149 115 102
is_linear=0
shrinkage=0.0158581


Tree=47
num_leaves=7
num_cat=0
split_feature=4 4 1 4 4 4
split_gain=1912.45 351.87 332.493 99.3745 39.2603 10.6553
threshold=12.450000000000001 20.450000000000003 3.6500000000000008 16.050000000000004 9.6500000000000004 7.3500000000000005
decision_type=2 2 2 2 2 2
left_child=2 3 -1 -2 5 -4
right_child=1 -3 4 -5 -6 -7
leaf_value=-0.078616404864679482 0.0087478713580215351 0.077004393364794546 -0.038495233531888391 0.036210930613684716 -0.014464260276059801 -0.026915945218195837
leaf_weight=40 60 41 41 74 46 39
leaf_count=40 60 41 41 74 46 39
internal_value=0 0.0363525 -0.0387836 0.0239141 -0.0261381 -0.0328505
internal_weight=0 175 166 134 126 80
internal_count=341 175 166 134 126 80
is_linear=0
shrinkage=0.0158581


Tree=48
num_leaves=7
num_cat=0
split_feature=4 5 4 4 4 4
split_gain=1869.75 436.759 257.237 113.652 42.8601 18.3891
threshold=14.450000000000001 2.7500000000000004 20.450000000000003 11.050000000000002 17.550000000000004 7.3500000000000005
decision_type=2 2 2 2 2 2
left_child=1 -1 4 5 -2 -3
right_child=2 3 -4 -5 -6 -7
leaf_value=-0.078610185901483956 0.020478390029542687 -0.037381904932697364 0.077605239568184797 -0.0021875462843521424 0.041148497473047115 -0.023884262711446374
leaf_weight=39 52 44 41 60 49 60
leaf_count=39 52 44 41 60 49 60
internal_value=0 -0.0309111 0.0441056 -0.0195679 0.0305066 -0.0295949
internal_weight=0 203 142 164 101 104
internal_count=345 203 142 164 101 104
is_linear=0
shrinkage=0.0158581


Tree=49
num_leaves=7
num_cat=0
split_feature=4 2 4 4 4 4
split_gain=1793.48 354.026 328.462 78.641 56.0969 11.6662
threshold=13.350000000000003 7.2500000000000009 20.450000000000003 16.750000000000004 9.6500000000000004 7.3500000000000005
decision_type=2 2 2 2 2 2
left_child=1 -1 3 -2 5 -3
right_child=2 4 -4 -5 -6 -7
leaf_value=-0.077284107129806559 0.012734018896726228 -0.037774425774891318 0.077729338231150649 0.037793663711269999 -0.011485509077148934 -0.025658433148656418
leaf_weight=39 64 41 39 62 59 39
leaf_count=39 64 41 39 62 59 39
internal_value=0 -0.0350629 0.0375131 0.025065 -0.0232165 -0.031868
internal_weight=0 178 165 126 139 80
internal_count=343 178 165 126 139 80
is_linear=0
shrinkage=0.0158581


Tree=50
num_leaves=7
num_cat=0
split_feature=4 5 4 4 4 4
split_gain=1734.76 402.679 234.214 95.9249 43.6366 17.4969
threshold=14.250000000000002 2.7500000000000004 20.450000000000003 11.050000000000002 17.050000000000004 7.3500000000000005
decision_type=2 2 2 2 2 2
left_child=1 -1 4 5 -2 -3
right_child=2 3 -4 -5 -6 -7
leaf_value=-0.076345589569873459 0.018287541758868764 -0.03620981988998323 0.073513369009182677 -0.0030179558130294837 0.038835723542097106 -0.023043715384794272
leaf_weight=39 51 44 41 57 53 60
leaf_count=39 51 44 41 57 53 60
internal_value=0 -0.030627 0.041414 -0.0195521 0.0287593 -0.0286141
internal_weight=0 200 145 161 104 104
internal_count=345 200 145 161 104 104
is_linear=0
shrinkage=0.0158581


Tree=51
num_leaves=7
num_cat=0
split_feature=4 5 4 4 4 4
split_gain=1702.18 415.177 209.462 114.865 29.1176 17.4577
threshold=14.800000000000002 2.7500000000000004 20.450000000000003 11.050000000000002 17.850000000000005 7.3500000000000005
decision_type=2 2 2 2 2 2
left_child=1 -1 4 5 -2 -3
right_child=2 3 -4 -5 -6 -7
leaf_value=-0.075134907871384327 0.021996823157992874 -0.035838718916671224 0.073278964732178653 -0.0016030818380323296 0.039856874128394462 -0.022640277091439325
leaf_weight=39 48 44 42 67 44 59
leaf_count=39 48 44 42 67 44 59
internal_value=0 -0.0284707 0.0439351 -0.0177653 0.0305387 -0.0282785
internal_weight=0 209 134 170 92 103
internal_count=343 209 134 170 92 103
is_linear=0
shrinkage=0.0158581


Tree=52
num_leaves=6
num_cat=0
split_feature=4 4 1 4 4
split_gain=1641.02 325.326 300.966 88.1948 34.7382
threshold=12.450000000000001 20.450000000000003 3.6500000000000008 15.900000000000002 8.4500000000000011
decision_type=2 2 2 2 2
left_child=2 3 -1 -2 -4
right_child=1 -3 4 -5 -6
leaf_value=-0.074187396706334119 0.0071263429914453008 0.0728991423804147 -0.032526798425112732 0.033019170909533727 -0.015985875454117053
leaf_weight=39 58 41 61 77 67
leaf_count=39 58 41 61 77 67
internal_value=0 0.0337767 -0.0356199 0.0218949 -0.0238687
internal_weight=0 176 167 135 128
internal_count=343 176 167 135 128
is_linear=0
shrinkage=0.0158581


Tree=53
num_leaves=7
num_cat=0
split_feature=4 3 4 4 4 4
split_gain=1588.81 371.289 216.04 89.5224 36.1189 15.1352
threshold=14.450000000000001 1.2500000000000002 20.450000000000003 11.050000000000002 17.550000000000004 7.6500000000000012
decision_type=2 2 2 2 2 2
left_child=1 -1 4 5 -2 -3
right_child=2 3 -4 -5 -6 -7
leaf_value=-0.071287411356478633 0.019167399216171017 -0.033714383462002624 0.071918075992810818 -0.0022800949233475641 0.038142458260559224 -0.02136295332093498
leaf_weight=41 52 45 40 59 49 56
leaf_count=41 52 45 40 59 49 56
internal_value=0 -0.0287105 0.0407265 -0.0178001 0.0283732 -0.0268662
internal_weight=0 201 141 160 101 101
internal_count=342 201 141 160 101 101
is_linear=0
shrinkage=0.0158581


Tree=54
num_leaves=7
num_cat=0
split_feature=4 2 4 4 4 4
split_gain=1541.4 363.007 191.499 99.821 28.4625 14.2344
threshold=14.800000000000002 7.8500000000000005 20.450000000000003 11.050000000000002 17.850000000000005 7.6500000000000012
decision_type=2 2 2 2 2 2
left_child=1 -1 4 5 -2 -3
right_child=2 3 -4 -5 -6 -7
leaf_value=-0.069122658452914598 0.020746164938126411 -0.032992923872345106 0.069820411519618389 -0.0012965124825590074 0.038115322874207512 -0.021061574120935098
leaf_weight=41 49 45 42 66 46 57
leaf_count=41 49 45 42 66 46 57
internal_value=0 -0.0268173 0.041623 -0.0164927 0.0291566 -0.0263255
internal_weight=0 209 137 168 95 102
internal_count=346 209 137 168 95 102
is_linear=0
shrinkage=0.0158581


Tree=55
num_leaves=6
num_cat=0
split_feature=2 1 1 2 2
split_gain=1391.28 284.908 233.543 55.3824 35.8716
threshold=16.050000000000004 3.6500000000000008 15.550000000000002 20.150000000000002 12.250000000000002
decision_type=2 2 2 2 2
left_child=1 -1 3 -2 -3
right_child=2 4 -4 -5 -6
leaf_value=-0.069783545379923678 0.0076238468105304952 -0.028661801849801074 0.062316782430005671 0.029671125812703213 -0.012080410787210512
leaf_weight=39 49 71 47 69 61
leaf_count=39 49 71 47 69 61
internal_value=0 -0.0321256 0.032423 0.0205159 -0.0209992
internal_weight=0 171 165 118 132
internal_count=336 171 165 118 132
is_linear=0
shrinkage=0.0158581


end of trees

feature_importances:
feelslike=207
feelslikemax=34
tempmin=29
tempmax=21
feelslikemin=11
dew=6
humidity=1
windgust=1
cloudcover=1

parameters:
[boosting: gbdt]
[objective: regression]
[metric: rmse]
[tree_learner: serial]
[device_type: cpu]
[data_sample_strategy: bagging]
[data: ]
[valid: ]
[num_iterations: 56]
[learning_rate: 0.0158581]
[num_leaves: 87]
[num_threads: 0]
[seed: 0]
[deterministic: 0]
[force_col_wise: 0]
[force_row_wise: 0]
[histogram_pool_size: -1]
[max_depth: 12]
[min_data_in_leaf: 39]
[min_sum_hessian_in_leaf: 0.001]
[bagging_fraction: 0.976959]
[pos_bagging_fraction: 1]
[neg_bagging_fraction: 1]
[bagging_freq: 1]
[bagging_seed: 3]
[feature_fraction: 0.760628]
[feature_fraction_bynode: 1]
[feature_fraction_seed: 2]
[extra_trees: 0]
[extra_seed: 6]
[early_stopping_round: 0]
[early_stopping_min_delta: 0]
[first_metric_only: 0]
[max_delta_step: 0]
[lambda_l1: 1.80207e-05]
[lambda_l2: 0.000332315]
[linear_lambda: 0]
[min_gain_to_split: 0]
[drop_rate: 0.1]
[max_drop: 50]
[skip_drop: 0.5]
[xgboost_dart_mode: 0]
[uniform_drop: 0]
[drop_seed: 4]
[top_rate: 0.2]
[other_rate: 0.1]
[min_data_per_group: 100]
[max_cat_threshold: 32]
[cat_l2: 10]
[cat_smooth: 10]
[max_cat_to_onehot: 4]
[top_k: 20]
[monotone_constraints: ]
[monotone_constraints_method: basic]
[monotone_penalty: 0]
[feature_contri: ]
[forcedsplits_filename: ]
[refit_decay_rate: 0.9]
[cegb_tradeoff: 1]
[cegb_penalty_split: 0]
[cegb_penalty_feature_lazy: ]
[cegb_penalty_feature_coupled: ]
[path_smooth: 0]
[interaction_constraints: ]
[verbosity: 1]
[saved_feature_importance_type: 0]
[use_quantized_grad: 0]
[num_grad_quant_bins: 4]
[quant_train_renew_leaf: 0]
[stochastic_rounding: 1]
[linear_tree: 0]
[max_bin: 255]
[max_bin_by_feature: ]
[min_data_in_bin: 3]
[bin_construct_sample_cnt: 200000]
[data_random_seed: 1]
[is_enable_sparse: 1]
[enable_bundle: 1]
[use_missing: 1]
[zero_as_missing: 0]
[feature_pre_filter: 1]
[pre_partition: 0]
[two_round: 0]
[header: 0]
[label_column: ]
[weight_column: ]
[group_column: ]
[ignore_column: ]
[categorical_feature: ]
[forcedbins_filename: ]
[precise_float_parser: 0]
[parser_config_file: ]
[objective_seed: 5]
[num_class: 1]
[is_unbalance: 0]
[scale_pos_weight: 1]
[sigmoid: 1]
[boost_from_average: 1]
[reg_sqrt: 0]
[alpha: 0.9]
[fair_c: 1]
[poisson_max_delta_step: 0.7]
[tweedie_variance_power: 1.5]
[lambdarank_truncation_level: 30]
[lambdarank_norm: 1]
[label_gain: ]
[lambdarank_position_bias_regularization: 0]
[eval_at: ]
[multi_error_top_k: 1]
[auc_mu_weights: ]
[num_machines: 1]
[local_listen_port: 12400]
[time_out: 120]
[machine_list_filename: ]
[machines: ]
[gpu_platform_id: -1]
[gpu_device_id: -1]
[gpu_use_dp: 0]
[num_gpu: 1]

end of parameters

pandas_categorical:[]
