tree
version=v4
num_class=1
num_tree_per_iteration=1
label_index=0
max_feature_idx=22
objective=regression
feature_names=Column_0 Column_1 Column_2 Column_3 Column_4 Column_5 Column_6 Column_7 Column_8 Column_9 Column_10 Column_11 Column_12 Column_13 Column_14 Column_15 Column_16 Column_17 Column_18 Column_19 Column_20 Column_21 Column_22
feature_infos=[-1.3:36.200000000000003] [-4.0999999999999996:21.199999999999999] [-5.5:39] [-7.2999999999999998:21.199999999999999] [-6.2999999999999998:29.600000000000001] [-6.0999999999999996:20.300000000000001] [51.600000000000001:95] [0:19.334] [0:100] [0:75] none [0:3.8999999999999999] [14.4:90] [6.7999999999999998:40.700000000000003] [0.40000000000000002:358.19999999999999] [979.70000000000005:1042.8] [13:100] [5.0999999999999996:39.100000000000001] [0:159.90000000000001] [0:13.800000000000001] [0:8] none [0:0.97999999999999998]
tree_sizes=1815 1908 1906 1906 1906 1909 2003 2284 2182 2185 2252 2279 2154 2274 2065 2139 1973 2204 2066 2200 2188 2277 2281 2269 2282 2265 2266 2265 1974 1973 2073 2170 2169 2067 2171 2301 2300 2297 2299 2398 2400 2298 2351 2193 2193 2195 2193 2196 2288 2397 2202 2302 2300 2202 2203 2399 2185 2077 2157 2075 2162 2090 2159 2181 2184 2308 2302 2180 2309 2300 2164 2162 2082 2155 2170 2154 2171 2171 2286 2164 2290 2174 2190 2073 2294 2396 2404 2280 2412 2283 2390 2209 2206 2289 2289 2213 2208 2294 2002 1977 1903 1983 1996 1997 1906 1967 1850 2108 1847

Tree=0
num_leaves=18
num_cat=0
split_feature=4 4 4 4 4 4 4 4 4 4 4 4 1 4 4 4 4
split_gain=5432.61 1110.71 834.703 222.87 219.934 123.583 79.2418 38.9048 32.6232 27.265 12.3862 7.31692 5.5843 3.91227 3.46195 3.04162 1.36892
threshold=12.950000000000001 3.3000000000000003 18.000000000000004 22.300000000000001 9.0500000000000025 -0.69999999999999984 15.050000000000002 6.6500000000000012 19.700000000000006 11.050000000000002 16.250000000000004 13.850000000000003 5.4500000000000011 7.6500000000000012 18.950000000000003 12.050000000000002 9.9000000000000021
decision_type=2 2 2 2 2 2 2 2 2 2 2 2 2 2 2 2 2
left_child=1 5 6 8 7 -1 11 12 14 16 -8 -2 -3 -9 -4 -11 -6
right_child=2 4 3 -5 9 -7 10 13 -10 15 -12 -13 -14 -15 -16 -17 -18
leaf_value=12.604135223439989 12.738788862503272 12.673456608375393 12.790474611865141 12.852593959739021 12.707622979395936 12.64824187592963 12.761878929085945 12.690918815210091 12.812751594294095 12.721535281248126 12.774727746627077 12.749003736988838 12.682871346519194 12.697997718171319 12.798289188078744 12.729423034330289 12.71228216009388
leaf_weight=13.000000000000002 13.000000000000002 14.000000000000002 14.000000000000002 10.999999999999998 14.000000000000002 12.999999999999998 17.000000000000004 15.999999999999998 14.999999999999998 10.000000000000002 13.999999999999998 15.999999999999998 11.999999999999998 15.999999999999998 9.9999999999999982 9.9999999999999982 11.999999999999998
leaf_count=13 13 14 14 11 14 13 17 16 15 10 14 16 12 16 10 10 12
internal_value=12.7316 12.6853 12.7819 12.8124 12.7001 12.6262 12.7564 12.687 12.801 12.7166 12.7677 12.7444 12.6778 12.6945 12.7937 12.7255 12.7098
internal_weight=0 130 110 50 104 26 60 58 39 46 31 29 26 32 24 20 26
internal_count=240 130 110 50 104 26 60 58 39 46 31 29 26 32 24 20 26
is_linear=0
shrinkage=1


Tree=1
num_leaves=18
num_cat=0
split_feature=4 4 4 4 4 4 4 4 4 4 4 4 1 4 4 4 4
split_gain=5323.29 1088.36 817.949 227.97 215.508 121.096 68.0787 38.1219 35.61 26.7164 8.62421 7.16967 5.47192 4.48724 3.83355 2.98042 1.34137
threshold=12.950000000000001 3.3000000000000003 17.650000000000002 22.300000000000001 9.0500000000000025 -0.69999999999999984 15.050000000000002 6.6500000000000012 19.700000000000006 11.050000000000002 16.250000000000004 13.850000000000003 5.4500000000000011 18.850000000000005 7.6500000000000012 12.050000000000002 9.9000000000000021
decision_type=2 2 2 2 2 2 2 2 2 2 2 2 2 2 2 2 2
left_child=1 5 6 8 7 -1 11 12 13 16 -8 -2 -3 -4 -9 -11 -6
right_child=2 4 3 -5 9 -7 10 14 -10 15 -12 -13 -14 -15 -16 -17 -18
leaf_value=-0.12613861170644886 0.0071533239797576705 -0.057518246061023508 0.056894477684935781 0.11980755867168896 -0.023697390159302424 -0.08247799351970396 0.030009884765608823 -0.040232628479675035 0.080368092624051368 -0.0099257794852867648 0.041211593979161104 0.017264897771743701 -0.048198718672496033 0.065341008183362984 -0.033225313051924429 -0.0021177913064200542 -0.019085326746491302
leaf_weight=13.000000000000002 13.000000000000002 14.000000000000002 14.000000000000002 10.999999999999998 14.000000000000002 12.999999999999998 17.000000000000004 15.999999999999998 14.999999999999998 10.000000000000002 11.999999999999998 15.999999999999998 11.999999999999998 11.999999999999998 15.999999999999998 9.9999999999999982 11.999999999999998
leaf_count=13 13 14 14 11 14 13 17 16 15 10 12 16 12 12 16 10 12
internal_value=0 -0.0457879 0.0498015 0.0789261 -0.0311568 -0.104311 0.0236893 -0.0441214 0.0679564 -0.0148097 0.0346458 0.0127324 -0.0532181 0.0607942 -0.0367296 -0.00602196 -0.0215692
internal_weight=0 130 110 52 104 26 58 58 41 46 29 29 26 26 32 20 26
internal_count=240 130 110 52 104 26 58 58 41 46 29 29 26 26 32 20 26
is_linear=0
shrinkage=0.0101131


Tree=2
num_leaves=18
num_cat=0
split_feature=4 4 4 4 4 4 4 4 4 4 4 4 1 4 4 4 4
split_gain=5216.17 1066.46 801.557 213.969 211.171 118.659 76.0627 37.3548 31.309 26.1788 11.8789 7.0254 5.3618 3.7564 3.32841 2.92044 1.31438
threshold=12.950000000000001 3.3000000000000003 18.000000000000004 22.300000000000001 9.0500000000000025 -0.69999999999999984 15.050000000000002 6.6500000000000012 19.700000000000006 11.050000000000002 16.250000000000004 13.850000000000003 5.4500000000000011 7.6500000000000012 18.950000000000003 12.050000000000002 9.9000000000000021
decision_type=2 2 2 2 2 2 2 2 2 2 2 2 2 2 2 2 2
left_child=1 5 6 8 7 -1 11 12 14 16 -8 -2 -3 -9 -4 -11 -6
right_child=2 4 3 -5 9 -7 10 13 -10 15 -12 -13 -14 -15 -16 -17 -18
leaf_value=-0.12486301854246988 0.007080984933605431 -0.056936580779355081 0.057728835931166372 0.11859600114992523 -0.023457746474302831 -0.081643924158532707 0.029706404025671703 -0.039825766940656308 0.079555355164751498 -0.0098254045987732543 0.042289354488210362 0.01709030297746943 -0.047711304515697488 -0.032889315125642714 0.065391192489166791 -0.0020963750667157056 -0.018892324567665545
leaf_weight=13.000000000000002 13.000000000000002 14.000000000000002 14.000000000000002 10.999999999999998 14.000000000000002 12.999999999999998 17.000000000000004 15.999999999999998 14.999999999999998 10.000000000000002 13.999999999999998 15.999999999999998 11.999999999999998 15.999999999999998 9.9999999999999982 9.9999999999999982 11.999999999999998
leaf_count=13 13 14 14 11 14 13 17 16 15 10 14 16 12 16 10 10 12
internal_value=0 -0.0453249 0.0492979 0.0792028 -0.0308417 -0.103256 0.0243766 -0.0436752 0.0680903 -0.0146599 0.0353897 0.0126036 -0.0526799 -0.0363582 0.0609229 -0.00596106 -0.0213511
internal_weight=0 130 110 50 104 26 60 58 39 46 31 29 26 32 24 20 26
internal_count=240 130 110 50 104 26 60 58 39 46 31 29 26 32 24 20 26
is_linear=0
shrinkage=0.0101131


Tree=3
num_leaves=18
num_cat=0
split_feature=4 4 4 4 4 4 4 4 4 4 4 4 1 4 4 4 4
split_gain=5111.21 1045 785.553 218.849 206.922 116.272 65.3283 36.6031 34.1664 25.652 8.25782 6.88402 5.25391 4.30604 3.68081 2.86168 1.28793
threshold=12.950000000000001 3.3000000000000003 17.650000000000002 22.300000000000001 9.0500000000000025 -0.69999999999999984 15.050000000000002 6.6500000000000012 19.700000000000006 11.050000000000002 16.250000000000004 13.850000000000003 5.4500000000000011 18.850000000000005 7.6500000000000012 12.050000000000002 9.9000000000000021
decision_type=2 2 2 2 2 2 2 2 2 2 2 2 2 2 2 2 2
left_child=1 5 6 8 7 -1 11 12 13 16 -8 -2 -3 -4 -9 -11 -6
right_child=2 4 3 -5 9 -7 10 14 -10 15 -12 -13 -14 -15 -16 -17 -18
leaf_value=-0.12360032407339333 0.0070093776381971017 -0.056360803276413428 0.05575763351498441 0.11739669161667225 -0.023220525892341897 -0.080818288987408365 0.02940599016029723 -0.039423018669857444 0.078750838436065687 -0.0097260454703608189 0.040367183189156948 0.016917473380437524 -0.047228818507575723 0.064031880688440471 -0.032556714232094018 -0.0020751755164472316 -0.018701273516196288
leaf_weight=13.000000000000002 13.000000000000002 14.000000000000002 14.000000000000002 10.999999999999998 14.000000000000002 12.999999999999998 17.000000000000004 15.999999999999998 14.999999999999998 10.000000000000002 11.999999999999998 15.999999999999998 11.999999999999998 11.999999999999998 15.999999999999998 9.9999999999999982 11.999999999999998
leaf_count=13 13 14 14 11 14 13 17 16 15 10 12 16 12 12 16 10 12
internal_value=0 -0.0448665 0.0487993 0.0773413 -0.0305298 -0.102212 0.0232095 -0.0432336 0.0665933 -0.0145117 0.0339424 0.0124761 -0.0521472 0.0595778 -0.0359905 -0.00590078 -0.0211352
internal_weight=0 130 110 52 104 26 58 58 41 46 29 29 26 26 32 20 26
internal_count=240 130 110 52 104 26 58 58 41 46 29 29 26 26 32 20 26
is_linear=0
shrinkage=0.0101131


Tree=4
num_leaves=18
num_cat=0
split_feature=4 4 4 4 4 4 4 4 4 4 4 4 1 4 4 4 4
split_gain=5008.35 1023.97 769.746 214.446 202.758 113.932 64.0137 35.8666 33.4788 25.1358 8.09166 6.74549 5.14818 4.21939 3.60674 2.80409 1.26201
threshold=12.950000000000001 3.3000000000000003 17.650000000000002 22.300000000000001 9.0500000000000025 -0.69999999999999984 15.050000000000002 6.6500000000000012 19.700000000000006 11.050000000000002 16.250000000000004 13.850000000000003 5.4500000000000011 18.850000000000005 7.6500000000000012 12.050000000000002 9.9000000000000021
decision_type=2 2 2 2 2 2 2 2 2 2 2 2 2 2 2 2 2
left_child=1 5 6 8 7 -1 11 12 13 16 -8 -2 -3 -4 -9 -11 -6
right_child=2 4 3 -5 9 -7 10 14 -10 15 -12 -13 -14 -15 -16 -17 -18
leaf_value=-0.12235039624839424 0.0069384942924261891 -0.055790846042860151 0.055193775543493487 0.11620951434290473 -0.022985704302941633 -0.080001002692595719 0.02910861423670651 -0.039024345090319761 0.077954453711197039 -0.0096276907683070529 0.03995896659974324 0.016746391801846061 -0.046751212427497871 0.0633843507239569 -0.032227476767130732 -0.0020541902370712073 -0.018512155509346206
leaf_weight=13.000000000000002 13.000000000000002 14.000000000000002 14.000000000000002 10.999999999999998 14.000000000000002 12.999999999999998 17.000000000000004 15.999999999999998 14.999999999999998 10.000000000000002 11.999999999999998 15.999999999999998 11.999999999999998 11.999999999999998 15.999999999999998 9.9999999999999982 11.999999999999998
leaf_count=13 13 14 14 11 14 13 17 16 15 10 12 16 12 12 16 10 12
internal_value=0 -0.0444128 0.0483059 0.0765592 -0.0302211 -0.101178 0.0229748 -0.0427964 0.0659199 -0.0143649 0.0335991 0.01235 -0.0516198 0.0589753 -0.0356265 -0.00584111 -0.0209214
internal_weight=0 130 110 52 104 26 58 58 41 46 29 29 26 26 32 20 26
internal_count=240 130 110 52 104 26 58 58 41 46 29 29 26 26 32 20 26
is_linear=0
shrinkage=0.0101131


Tree=5
num_leaves=18
num_cat=0
split_feature=4 4 4 4 4 4 4 4 4 4 4 4 17 4 4 4 4
split_gain=4907.57 1003.37 754.342 201.268 198.678 111.639 71.5212 35.1449 29.4297 24.63 11.1502 6.60975 5.04262 3.53416 3.13993 2.74766 1.23661
threshold=12.950000000000001 3.3000000000000003 18.000000000000004 22.300000000000001 9.0500000000000025 -0.69999999999999984 15.050000000000002 6.6500000000000012 19.700000000000006 11.050000000000002 16.250000000000004 13.850000000000003 17.950000000000003 7.6500000000000012 18.950000000000003 12.050000000000002 9.9000000000000021
decision_type=2 2 2 2 2 2 2 2 2 2 2 2 2 2 2 2 2
left_child=1 5 6 8 7 -1 11 12 14 16 -8 -2 -3 -9 -4 -11 -6
right_child=2 4 3 -5 9 -7 10 13 -10 15 -12 -13 -14 -15 -16 -17 -18
leaf_value=-0.12111311414452625 0.0068683276631716673 -0.056738124265364315 0.055999242548376134 0.11503433431142647 -0.022753257595624028 -0.07919198292779385 0.028814247322120647 -0.038629702802964738 0.077166125765252586 -0.0095303307883006436 0.041005142943518855 0.016577040309436911 -0.04757072173829395 -0.031901568975914014 0.063441428780943429 -0.0020334172771772048 -0.018324949149209482
leaf_weight=13.000000000000002 13.000000000000002 10.000000000000002 14.000000000000002 10.999999999999998 14.000000000000002 12.999999999999998 17.000000000000004 15.999999999999998 14.999999999999998 10.000000000000002 13.999999999999998 15.999999999999998 15.999999999999998 15.999999999999998 9.9999999999999982 9.9999999999999982 11.999999999999998
leaf_count=13 13 10 14 11 14 13 17 16 15 10 14 16 16 16 10 10 12
internal_value=0 -0.0439637 0.0478174 0.0768281 -0.0299155 -0.100155 0.0236412 -0.0423636 0.0660505 -0.0142197 0.0343205 0.0122251 -0.0510978 -0.0352663 0.0591016 -0.00578204 -0.0207099
internal_weight=0 130 110 50 104 26 60 58 39 46 31 29 26 32 24 20 26
internal_count=240 130 110 50 104 26 60 58 39 46 31 29 26 32 24 20 26
is_linear=0
shrinkage=0.0101131


Tree=6
num_leaves=19
num_cat=0
split_feature=4 4 4 4 4 4 4 4 4 4 4 4 0 4 4 4 4 4
split_gain=4808.81 983.37 739.259 209.283 205.866 88.983 61.4275 33.0939 32.1215 30.916 7.74786 6.47674 6.08239 4.04887 3.59784 3.46806 2.69237 0.38415
threshold=12.950000000000001 3.0500000000000003 17.650000000000002 8.4500000000000011 22.300000000000001 -0.69999999999999984 15.050000000000002 6.4500000000000011 19.700000000000006 11.050000000000002 16.250000000000004 13.850000000000003 9.8500000000000032 18.850000000000005 7.3500000000000005 9.6500000000000004 12.050000000000002 10.250000000000002
decision_type=2 2 2 2 2 2 2 2 2 2 2 2 2 2 2 2 2 2
left_child=1 5 6 7 8 -1 11 12 13 15 -8 -2 -3 -4 -9 -5 -11 -17
right_child=2 3 4 9 -6 -7 10 14 -10 16 -12 -13 -14 -15 -16 17 -18 -19
leaf_value=-0.11988833829237878 0.006798870923016411 -0.057980053435734792 0.054090978123956537 -0.025832380023472688 0.11387104543729763 -0.080794909274455665 0.028522855661630934 -0.040624689662974195 0.076385767800278864 -0.0094339552835532459 0.039140209186412686 0.016409401724408152 -0.047785129099067562 0.062114355076265435 -0.033723440743396324 -0.020455613580645376 -0.0020128542634282182 -0.017493279302988819
leaf_weight=13.000000000000002 13.000000000000002 12.000000000000002 14.000000000000002 13.000000000000002 10.999999999999998 10.999999999999998 17.000000000000004 15.000000000000002 14.999999999999998 10.000000000000002 11.999999999999998 15.999999999999998 11.999999999999998 11.999999999999998 15.999999999999998 9.0000000000000018 9.9999999999999982 8.9999999999999982
leaf_count=13 13 12 14 13 11 11 17 15 15 10 12 16 12 12 16 9 10 9
internal_value=0 -0.0435191 0.0473338 -0.0302838 0.075022 -0.101973 0.0225094 -0.0439674 0.0645977 -0.0155267 0.0329169 0.0121014 -0.0528838 0.0577953 -0.0370634 -0.0218511 -0.00572357 -0.018975
internal_weight=0 130 110 106 52 24 58 55 41 51 29 29 24 26 31 31 20 18
internal_count=240 130 110 106 52 24 58 55 41 51 29 29 24 26 31 31 20 18
is_linear=0
shrinkage=0.0101131


Tree=7
num_leaves=22
num_cat=0
split_feature=0 0 0 1 1 2 0 1 5 1 1 0 5 0 1 1 0 5 0 6 5
split_gain=4750.83 1054.76 662.259 233.033 190.973 171.217 153.83 43.4189 30.6947 22.7343 22.6669 22.221 13.4938 11.2475 7.16929 6.63683 6.04491 5.73876 2.21968 2.10106 0.91057
threshold=16.950000000000003 9.5500000000000025 24.250000000000004 7.8500000000000005 0.90000000000000013 29.050000000000004 20.750000000000004 9.8500000000000032 12.350000000000003 12.450000000000001 15.400000000000002 10.950000000000001 3.0500000000000003 15.450000000000001 5.9500000000000011 10.050000000000002 13.950000000000001 4.5500000000000007 11.950000000000001 68.500000000000014 7.8500000000000005
decision_type=2 2 2 2 2 2 2 2 2 2 2 2 2 2 2 2 2 2 2 2 2
left_child=1 4 6 11 -1 10 9 16 19 15 -4 14 -6 -9 -3 -2 20 -13 -19 -8 -5
right_child=2 3 5 7 12 -7 8 13 -10 -11 -12 17 -14 -15 -16 -17 -18 18 -20 -21 -22
leaf_value=-0.11514110609744532 0.00574868625035056 -0.049689641020424363 0.065911160757813544 -0.022191893005989338 -0.075039114981318225 0.12485395043873714 0.044159446329512429 -0.0036409125704011652 0.060701994381535243 0.031504987589198709 0.086176535988534864 -0.037805409771166289 -0.057511659431154938 0.010490581217926639 -0.038111778033266673 0.017046594431527336 -0.010374597999216553 -0.033316690947152852 -0.0268726131009034 0.037409521666209929 -0.017752610365542237
leaf_weight=14.999999999999998 9.0000000000000053 14.000000000000002 13.000000000000002 10.000000000000005 9.0000000000000018 9.9999999999999982 10.000000000000002 16.000000000000004 13.999999999999998 8.9999999999999982 9.9999999999999982 12.999999999999998 8.9999999999999982 8.9999999999999982 8.9999999999999982 12.999999999999998 9.9999999999999982 9.0000000000000018 13.999999999999998 8.9999999999999982 8.9999999999999982
leaf_count=15 9 14 13 10 9 10 10 16 14 9 10 13 9 9 9 13 10 9 14 9 9
internal_value=0 -0.0381904 0.0531174 -0.0235008 -0.0884898 0.0899168 0.034142 -0.00832033 0.0493382 0.0179648 0.0747241 -0.0373946 -0.0662775 0.00144655 -0.0451602 0.012425 -0.0167399 -0.0324326 -0.029395 0.0409633 -0.0200897
internal_weight=0 146 97 113 33 33 64 54 33 31 23 59 18 25 23 22 29 36 23 19 19
internal_count=243 146 97 113 33 33 64 54 33 31 23 59 18 25 23 22 29 36 23 19 19
is_linear=0
shrinkage=0.0101131


Tree=8
num_leaves=21
num_cat=0
split_feature=4 4 4 4 4 4 4 4 4 4 4 4 4 4 13 4 4 1 1 12
split_gain=4787.03 1028.27 687.432 236.532 188.622 158.99 108.368 41.7563 27.8308 15.4412 15.0868 12.9224 5.2542 3.81532 3.34695 2.22208 1.12539 1.03221 0.369793 0.182302
threshold=13.450000000000001 4.5000000000000009 19.150000000000002 9.0500000000000025 23.400000000000002 -0.69999999999999984 16.050000000000004 11.750000000000002 6.8500000000000005 20.450000000000003 17.650000000000002 14.800000000000002 11.050000000000002 12.450000000000001 17.450000000000003 8.1500000000000004 9.6500000000000004 6.7500000000000009 5.7500000000000009 44.350000000000001
decision_type=2 2 2 2 2 2 2 2 2 2 2 2 2 2 2 2 2 2 2 2
left_child=1 5 6 8 9 -1 11 12 14 -4 -8 19 16 -9 -3 17 -5 -10 -16 -2
right_child=2 3 4 7 -6 -7 10 13 15 -11 -12 -13 -14 -15 18 -17 -18 -19 -20 -21
leaf_value=-0.11797831064943545 0.011841488850331648 -0.051781512278115463 0.065051883676870925 -0.022789719185031709 0.11969694261687536 -0.070990337462738751 0.03855928188907063 -0.0042090830016645979 -0.036831099056656783 0.081085554939341817 0.053161795778813054 0.026094908191262811 -0.011251774172300047 0.004036380612071737 -0.045638138656436525 -0.028691658452203585 -0.018315324773576315 -0.032095303650611577 -0.042771594696908034 0.013882028215790031
leaf_weight=13.000000000000002 9.0000000000000053 9.0000000000000018 16.000000000000004 9.0000000000000018 11.999999999999998 17 15.000000000000002 11.000000000000002 10.000000000000005 9.9999999999999982 13.999999999999998 12.999999999999998 9.9999999999999982 11.999999999999998 10.000000000000002 9.9999999999999982 15.999999999999998 8.9999999999999982 8.9999999999999982 8.9999999999999982
leaf_count=13 9 9 16 9 12 17 15 11 10 10 14 13 10 12 10 10 16 9 9 9
internal_value=0 -0.0386261 0.052874 -0.0248707 0.0865303 -0.0913536 0.0315577 -0.0104924 -0.039501 0.0712203 0.0456097 0.0184118 -0.0174483 9.28909e-05 -0.0466933 -0.0325559 -0.0199266 -0.0345888 -0.0442816 0.0128622
internal_weight=0 145 98 115 38 30 60 58 57 26 29 31 35 23 28 29 25 19 19 18
internal_count=243 145 98 115 38 30 60 58 57 26 29 31 35 23 28 29 25 19 19 18
is_linear=0
shrinkage=0.0101131


Tree=9
num_leaves=21
num_cat=0
split_feature=4 4 4 4 4 4 4 4 4 4 4 4 4 4 13 4 4 1 1 12
split_gain=4690.7 1007.58 673.599 231.773 184.884 155.791 106.187 40.916 27.2708 14.7832 12.6623 11.5927 5.14847 3.73855 3.27961 2.17736 1.10275 1.01144 0.362351 0.178634
threshold=13.450000000000001 4.5000000000000009 19.150000000000002 9.0500000000000025 22.950000000000003 -0.69999999999999984 16.050000000000004 11.750000000000002 6.8500000000000005 17.650000000000002 14.800000000000002 20.450000000000003 11.050000000000002 12.450000000000001 17.450000000000003 8.1500000000000004 9.6500000000000004 6.7500000000000009 5.7500000000000009 44.350000000000001
decision_type=2 2 2 2 2 2 2 2 2 2 2 2 2 2 2 2 2 2 2 2
left_child=1 5 6 8 11 -1 10 12 14 -8 19 -4 16 -9 -3 17 -5 -10 -16 -2
right_child=2 3 4 7 -6 -7 9 13 15 -11 -12 -13 -14 -15 18 -17 -18 -19 -20 -21
leaf_value=-0.11678523663942661 0.011721742951798973 -0.051257876540393495 0.064394032910080598 -0.022559259507051337 0.11659080663692502 -0.070272430121998158 0.038169343369062234 -0.0041665183579533997 -0.036458644454092005 0.052624188606894051 0.025831019825790318 0.078757234111710317 -0.011137990338558829 0.0039955623109942263 -0.045176623309396965 -0.028401513527750388 -0.018130106773958342 -0.031770741003838483 -0.042339068545055078 0.013741647490740321
leaf_weight=13.000000000000002 9.0000000000000053 9.0000000000000018 16.000000000000004 9.0000000000000018 12.999999999999998 17 15.000000000000002 11.000000000000002 10.000000000000005 13.999999999999998 12.999999999999998 8.9999999999999982 9.9999999999999982 11.999999999999998 10.000000000000002 9.9999999999999982 15.999999999999998 8.9999999999999982 8.9999999999999982 8.9999999999999982
leaf_count=13 9 9 16 9 13 17 15 11 10 14 13 9 10 12 10 10 16 9 9 9
internal_value=0 -0.0382355 0.0523393 -0.0246192 0.0856552 -0.0904298 0.0312386 -0.0103863 -0.0391015 0.0451484 0.0182256 0.0695664 -0.0172718 9.19515e-05 -0.0462211 -0.0322267 -0.0197251 -0.0342391 -0.0438338 0.0127321
internal_weight=0 145 98 115 38 30 60 58 57 29 31 25 35 23 28 29 25 19 19 18
internal_count=243 145 98 115 38 30 60 58 57 29 31 25 35 23 28 29 25 19 19 18
is_linear=0
shrinkage=0.0101131


Tree=10
num_leaves=22
num_cat=0
split_feature=4 4 4 4 4 4 4 4 4 4 4 4 4 4 13 4 4 4 1 19 1
split_gain=4596.41 926.968 748.315 215.665 187.609 152.656 93.9764 26.722 25.6973 17.0924 15.4374 6.79168 5.04487 3.47763 3.21361 2.13355 1.98333 1.08056 0.991086 0.370278 0.355059
threshold=13.15 4.5000000000000009 18.450000000000003 22.950000000000003 9.0500000000000025 -0.69999999999999984 15.450000000000001 6.8500000000000005 11.750000000000002 20.250000000000004 17.250000000000004 14.250000000000002 11.050000000000002 16.250000000000004 17.450000000000003 8.1500000000000004 19.350000000000005 9.6500000000000004 6.7500000000000009 5.2500000000000009 5.7500000000000009
decision_type=2 2 2 2 2 2 2 2 2 2 2 2 2 2 2 2 2 2 2 2 2
left_child=1 5 6 9 7 -1 11 14 12 16 13 19 17 -8 -3 18 -4 -6 -9 -2 -16
right_child=2 4 3 -5 8 -7 10 15 -10 -11 -12 -13 -14 -15 20 -17 -18 -19 -20 -21 -22
leaf_value=-0.1156042319264424 0.0075634858937893247 -0.050739532130710627 0.057244763816163433 0.11541176710728446 -0.022331130590492812 -0.069561783206831512 0.02820742482939979 -0.036089956088720898 -0.0019416623628343546 0.075789407893128102 0.047793430607221736 0.019101985671397179 -0.011025357520524831 0.036691050074230291 -0.044719774952521781 -0.028114303283479081 0.063821485072444797 -0.017946762243242164 -0.03144946105926219 0.010466109830326573 -0.041910918079319522
leaf_weight=13.000000000000002 9.0000000000000053 9.0000000000000018 10.000000000000005 12.999999999999998 9.0000000000000018 17 9.0000000000000053 10.000000000000005 17 11.999999999999998 10.999999999999998 10.999999999999998 9.9999999999999982 10.999999999999998 10.000000000000002 9.9999999999999982 8.9999999999999982 15.999999999999998 8.9999999999999982 8.9999999999999982 8.9999999999999982
leaf_count=13 9 9 10 13 9 17 9 10 17 12 11 11 10 11 10 10 9 16 9 9 9
internal_value=0 -0.0397351 0.0491585 0.0808363 -0.0260337 -0.0895153 0.0259276 -0.0387061 -0.0121426 0.0663351 0.038169 0.0128414 -0.0170972 0.0328743 -0.0457537 -0.0319008 0.0603619 -0.0195256 -0.0338928 0.00901508 -0.0433905
internal_weight=0 139 104 44 109 30 60 57 52 31 31 29 35 20 28 29 19 25 19 18 19
internal_count=243 139 104 44 109 30 60 57 52 31 31 29 35 20 28 29 19 25 19 18 19
is_linear=0
shrinkage=0.0101131


Tree=11
num_leaves=22
num_cat=0
split_feature=4 4 4 4 4 4 4 4 4 4 4 4 4 4 12 4 4 4 1 2 1
split_gain=4504.05 967.403 646.921 222.503 153.392 149.584 123.705 39.2591 26.1843 19.3334 18.5021 18.0075 4.94335 3.61766 2.72571 2.40419 2.09062 1.05882 0.971142 0.554196 0.357337
threshold=13.450000000000001 4.5000000000000009 19.700000000000006 9.0500000000000025 16.550000000000004 -0.69999999999999984 23.650000000000002 11.750000000000002 6.8500000000000005 18.000000000000004 15.050000000000002 20.750000000000004 11.050000000000002 12.450000000000001 40.800000000000004 18.950000000000003 8.1500000000000004 9.6500000000000004 6.7500000000000009 17.400000000000002 5.7500000000000009
decision_type=2 2 2 2 2 2 2 2 2 2 2 2 2 2 2 2 2 2 2 2 2
left_child=1 5 4 8 10 -1 11 12 14 -6 19 -4 17 -9 -3 -11 18 -5 -10 -2 -16
right_child=2 3 6 7 9 -7 -8 13 16 15 -12 -13 -14 -15 20 -17 -18 -19 -20 -21 -22
leaf_value=-0.11443516668523358 0.011687101866600359 -0.049532039983329813 0.068660811275625316 -0.022105308995137241 0.040621891051734201 -0.068858322116054027 0.12250597505806736 -0.0041047490660706901 -0.0357249965899036 0.052601871686966846 0.028070326580961886 0.08796677984824984 -0.010913863422052045 0.0039242850453414845 -0.044377030557988917 0.059639586288244104 -0.027829997340675972 -0.017765271817602821 -0.031131430598743935 0.015073804890226684 -0.041487095615598948
leaf_weight=13.000000000000002 11.000000000000002 10.000000000000002 11.000000000000005 9.0000000000000018 13.999999999999998 17 8.9999999999999982 11.000000000000002 10.000000000000005 10.000000000000002 14.999999999999998 8.9999999999999982 9.9999999999999982 11.999999999999998 9.0000000000000018 9.9999999999999982 9.9999999999999982 15.999999999999998 8.9999999999999982 8.9999999999999982 8.9999999999999982
leaf_count=13 11 10 11 9 14 17 9 11 10 10 15 9 10 12 9 10 10 16 9 9 9
internal_value=0 -0.037467 0.0512874 -0.0241249 0.034442 -0.0886101 0.0913665 -0.0101796 -0.0383147 0.0497406 0.0195799 0.0773507 -0.0169243 8.43051e-05 -0.045291 0.0561223 -0.0315782 -0.0193281 -0.0335501 0.0132115 -0.0429334
internal_weight=0 145 98 115 69 30 29 58 57 34 35 20 35 23 28 20 29 25 19 20 18
internal_count=243 145 98 115 69 30 29 58 57 34 35 20 35 23 28 20 29 25 19 20 18
is_linear=0
shrinkage=0.0101131


Tree=12
num_leaves=21
num_cat=0
split_feature=4 4 4 4 4 4 4 4 4 4 4 4 4 13 4 4 4 4 1 1
split_gain=4413.47 890.007 718.576 207.332 180.105 146.574 90.3093 25.6574 24.6516 16.3731 11.3294 10.817 4.84387 3.09449 2.04855 1.91067 1.89817 1.03751 0.951599 0.339303
threshold=13.15 4.5000000000000009 18.450000000000003 22.950000000000003 9.0500000000000025 -0.69999999999999984 15.750000000000002 6.8500000000000005 11.750000000000002 20.250000000000004 14.500000000000002 17.250000000000004 11.050000000000002 17.450000000000003 8.1500000000000004 13.850000000000003 19.350000000000005 9.6500000000000004 6.7500000000000009 5.7500000000000009
decision_type=2 2 2 2 2 2 2 2 2 2 2 2 2 2 2 2 2 2 2 2
left_child=1 5 6 9 7 -1 10 13 12 16 15 -8 17 -3 18 -2 -4 -6 -9 -15
right_child=2 4 3 -5 8 -7 11 14 -10 -11 -12 -13 -14 19 -16 -17 -18 -19 -20 -21
leaf_value=-0.11327792518586378 0.0070605083044079382 -0.049725542015648751 0.056098353136172618 0.11311326151649981 -0.021881769673436451 -0.068161976786955999 0.033811948191229728 -0.035363727863697569 -0.0019091738659687974 0.0742472931683264 0.022021330792792056 0.046844257526228249 -0.010803497073049421 -0.043813568520500841 -0.027548566767232809 0.013225338763609561 0.062532446089542004 -0.017585616509943457 -0.030816616136256737 -0.041067560434884541
leaf_weight=13.000000000000002 12.000000000000002 9.0000000000000018 10.000000000000005 12.999999999999998 9.0000000000000018 17 16.000000000000004 10.000000000000005 17 11.999999999999998 11.999999999999998 10.999999999999998 9.9999999999999982 10.000000000000002 9.9999999999999982 8.9999999999999982 8.9999999999999982 15.999999999999998 8.9999999999999982 8.9999999999999982
leaf_count=13 12 9 10 13 9 17 16 10 17 12 12 11 10 10 10 9 9 16 9 9
internal_value=0 -0.0389363 0.0481704 0.0792123 -0.0255109 -0.087714 0.0254057 -0.0379273 -0.0119004 0.064994 0.0141826 0.0391223 -0.0167531 -0.044833 -0.0312589 0.00970286 0.0591478 -0.0191327 -0.0332108 -0.0425141
internal_weight=0 139 104 44 109 30 60 57 52 31 33 27 35 28 29 21 19 25 19 19
internal_count=243 139 104 44 109 30 60 57 52 31 33 27 35 28 29 21 19 25 19 19
is_linear=0
shrinkage=0.0101131


Tree=13
num_leaves=22
num_cat=0
split_feature=4 4 4 4 4 4 4 4 4 4 4 4 4 4 12 4 4 4 1 2 1
split_gain=4324.74 928.84 621.245 213.616 147.375 143.624 119.389 37.6791 25.1411 18.547 17.7643 17.2453 4.7464 3.50452 2.61579 2.30242 2.00733 1.01664 0.932449 0.526046 0.343389
threshold=13.450000000000001 4.5000000000000009 19.700000000000006 9.0500000000000025 16.550000000000004 -0.69999999999999984 23.650000000000002 11.750000000000002 6.8500000000000005 18.000000000000004 15.050000000000002 20.750000000000004 11.050000000000002 12.450000000000001 40.800000000000004 18.950000000000003 8.1500000000000004 9.6500000000000004 6.7500000000000009 17.400000000000002 5.7500000000000009
decision_type=2 2 2 2 2 2 2 2 2 2 2 2 2 2 2 2 2 2 2 2 2
left_child=1 5 4 8 10 -1 11 12 14 -6 19 -4 17 -9 -3 -11 18 -5 -10 -2 -16
right_child=2 3 6 7 9 -7 -8 13 16 15 -12 -13 -14 -15 20 -17 -18 -19 -20 -21 -22
leaf_value=-0.11213238650538655 0.011455424358263784 -0.048534275242587938 0.067258723448408539 -0.021660491864053714 0.039812684339496585 -0.067472672618352658 0.12012328618446654 -0.0040439328947684929 -0.035006111092857541 0.05154943104802194 0.027500173649352169 0.086151720922504185 -0.010694246478747064 0.0038585536924365597 -0.043485208988539595 0.058436652877139214 -0.027269980943335 -0.017407778237314687 -0.03050498445366184 0.01475502568214518 -0.040652267264067822
leaf_weight=13.000000000000002 11.000000000000002 10.000000000000002 11.000000000000005 9.0000000000000018 13.999999999999998 17 8.9999999999999982 11.000000000000002 10.000000000000005 10.000000000000002 14.999999999999998 8.9999999999999982 9.9999999999999982 11.999999999999998 9.0000000000000018 9.9999999999999982 9.9999999999999982 15.999999999999998 8.9999999999999982 8.9999999999999982 8.9999999999999982
leaf_count=13 11 10 11 9 14 17 9 11 10 10 15 9 10 12 9 10 10 16 9 9 9
internal_value=0 -0.0367136 0.0502562 -0.0236402 0.0337484 -0.086827 0.0895319 -0.00997611 -0.0375437 0.048744 0.0191808 0.0757628 -0.0165837 7.90965e-05 -0.0443796 0.0549946 -0.0309428 -0.0189392 -0.032875 0.0129406 -0.0420701
internal_weight=0 145 98 115 69 30 29 58 57 34 35 20 35 23 28 20 29 25 19 20 18
internal_count=243 145 98 115 69 30 29 58 57 34 35 20 35 23 28 20 29 25 19 20 18
is_linear=0
shrinkage=0.0101131


Tree=14
num_leaves=20
num_cat=0
split_feature=4 4 4 4 1 4 2 4 4 4 4 4 4 4 4 4 7 4 7
split_gain=4293.18 865.563 540.565 227.363 140.265 117.539 96.951 40.6825 34.4568 16.7186 12.1059 11.0967 4.70141 4.30179 3.57517 2.84001 0.446797 0.338635 0.274616
threshold=13.850000000000003 4.5000000000000009 19.700000000000006 9.6500000000000004 0.90000000000000013 16.750000000000004 29.050000000000004 11.750000000000002 7.3500000000000005 21.100000000000005 15.450000000000001 18.350000000000005 5.9500000000000011 12.950000000000001 8.4500000000000011 11.050000000000002 0.082000000000000017 10.050000000000002 0.36450000000000005
decision_type=2 2 2 2 2 2 2 2 2 2 2 2 2 2 2 2 2 2 2
left_child=1 4 5 8 -1 10 9 15 12 -4 18 -7 -3 -9 -10 17 -13 -5 -2
right_child=2 3 6 7 -6 11 -8 13 14 -11 -12 16 -14 -15 -16 -17 -18 -19 -20
leaf_value=-0.11174587220309924 0.015489022583538575 -0.045883239083629859 0.067670807734381111 -0.019162736027497927 -0.064621597245986984 0.04254015534158636 0.11296725451465559 -0.00237902657918196 -0.031047755653226705 0.085079628145788941 0.029550533616612296 0.053006969064543462 -0.03823758866262484 0.0056997554527752304 -0.024270079535596113 -0.011076804294069134 0.056169536730949252 -0.016451907748003466 0.017994242589452085
leaf_weight=12.000000000000002 9.0000000000000053 17 13.000000000000002 9.0000000000000053 13.999999999999998 12.999999999999998 9.9999999999999982 13.000000000000002 14.999999999999998 9.9999999999999982 12.999999999999998 9.0000000000000018 15.999999999999998 13.999999999999998 17 9.9999999999999982 9.9999999999999982 9.9999999999999982 8.9999999999999982
leaf_count=12 9 17 13 9 14 13 10 13 15 10 13 9 16 14 17 10 10 10 9
internal_value=0 -0.0334343 0.0535179 -0.0220587 -0.0863732 0.036149 0.0866755 -0.00712327 -0.0349259 0.0752418 0.0221139 0.0497449 -0.042177 0.00181 -0.0274476 -0.0154403 0.0546731 -0.0177365 0.0167422
internal_weight=0 147 96 121 26 63 33 56 65 23 31 32 33 27 32 29 19 19 18
internal_count=243 147 96 121 26 63 33 56 65 23 31 32 33 27 32 29 19 19 18
is_linear=0
shrinkage=0.0101131


Tree=15
num_leaves=21
num_cat=0
split_feature=0 3 0 3 2 1 1 0 0 1 0 3 1 1 0 1 5 1 0 1
split_gain=4106.17 879.33 446.138 281.103 131.424 99.6647 89.9427 54.8525 31.3027 30.2054 21.5565 16.2301 14.012 6.96332 6.50628 5.15137 3.4193 3.0983 3.09348 3.8969
threshold=17.950000000000003 0.65000000000000002 24.250000000000004 7.2500000000000009 29.050000000000004 14.550000000000002 1.0000000180025095e-35 11.050000000000002 14.15 15.15 19.450000000000003 3.8500000000000001 6.5500000000000007 11.15 21.650000000000002 15.750000000000002 4.9500000000000011 5.0500000000000007 13.350000000000003 7.8500000000000005
decision_type=2 2 2 2 2 2 2 2 2 2 2 2 2 2 2 2 2 2 2 2
left_child=1 6 5 7 9 10 -1 12 -5 -4 -2 16 17 -10 -12 -7 -9 -3 19 -13
right_child=2 3 4 8 -6 15 -8 11 13 -11 14 18 -14 -15 -16 -17 -18 -19 -20 -21
leaf_value=-0.11246991763494976 0.014011601712088866 -0.052333657541680956 0.059325652551547356 -0.012374244068543913 0.11182487021973195 0.048650058167583193 -0.070553751092010661 -0.038434171589156164 0.00065492677863777406 0.080395801646356152 0.026418163225921269 -0.02811283518771851 -0.034855160842799382 0.010845885659147987 0.037443459352720788 0.058982154104380645 -0.02961074934533198 -0.044356492310479473 -0.017386071155692386 -0.019776260672392503
leaf_weight=11.000000000000002 11.999999999999998 10.000000000000002 15.000000000000002 17 9.9999999999999982 11.000000000000002 9.9999999999999982 9.0000000000000018 16.000000000000004 12.999999999999998 14.000000000000002 12.000000000000002 12.999999999999998 11.999999999999998 8.9999999999999982 8.9999999999999982 8.9999999999999982 9.9999999999999982 9.9999999999999982 10.999999999999998
leaf_count=11 12 10 15 17 10 11 10 9 16 13 14 12 13 12 9 9 9 10 10 11
internal_value=0 -0.0318257 0.053704 -0.0219461 0.080352 0.035292 -0.0925123 -0.0328727 -0.00154961 0.0691096 0.0250004 -0.0262984 -0.0430324 0.00502261 0.0307332 0.053301 -0.0340235 -0.0483464 -0.0220842 -0.0241264
internal_weight=0 150 93 129 38 55 21 84 45 28 35 51 33 28 23 20 18 20 33 23
internal_count=243 150 93 129 38 55 21 84 45 28 35 51 33 28 23 20 18 20 33 23
is_linear=0
shrinkage=0.0101131


Tree=16
num_leaves=19
num_cat=0
split_feature=4 4 4 4 1 4 0 4 4 4 4 4 4 4 4 4 7 4
split_gain=4123.29 831.159 519.543 218.349 134.779 112.725 93.1405 38.9806 33.1207 18.6471 11.6794 10.6418 4.53659 4.12768 3.43372 2.72733 0.440241 0.318661
threshold=13.850000000000003 4.5000000000000009 19.700000000000006 9.6500000000000004 0.90000000000000013 16.750000000000004 29.650000000000002 11.750000000000002 7.3500000000000005 21.100000000000005 15.050000000000002 18.350000000000005 5.9500000000000011 12.950000000000001 8.4500000000000011 11.050000000000002 0.082000000000000017 10.050000000000002
decision_type=2 2 2 2 2 2 2 2 2 2 2 2 2 2 2 2 2 2
left_child=1 4 5 8 -1 10 9 15 12 -4 -2 -7 -3 -9 -10 17 -13 -5
right_child=2 3 6 7 -6 11 -8 13 14 -11 -12 16 -14 -15 -16 -17 -18 -19
leaf_value=-0.1095137897403628 0.015263581170052144 -0.044978304161549819 0.066338436424985714 -0.018757610018136677 -0.063320418813493859 0.041679402996946092 0.11270273331449582 -0.0023415755128188597 -0.030424847729190792 0.084243342713947775 0.027686077089724398 0.051907982304809627 -0.037467903292604576 0.0055720290977003045 -0.023782603837577774 -0.01084776271649617 0.055045815092463257 -0.016127810994498913
leaf_weight=12.000000000000002 15.000000000000002 17 13.000000000000002 9.0000000000000053 13.999999999999998 12.999999999999998 8.9999999999999982 13.000000000000002 14.999999999999998 10.999999999999998 15.999999999999998 9.0000000000000018 15.999999999999998 13.999999999999998 17 9.9999999999999982 9.9999999999999982 9.9999999999999982
leaf_count=12 15 17 13 9 14 13 9 13 15 11 16 9 16 14 17 10 10 10
internal_value=0 -0.0327662 0.0524481 -0.0216189 -0.0846423 0.0354203 0.0849546 -0.00698261 -0.0342285 0.0745466 0.0216756 0.048735 -0.0413376 0.00176181 -0.0268966 -0.0151238 0.0535611 -0.017374
internal_weight=0 147 96 121 26 63 33 56 65 24 31 32 33 27 32 29 19 19
internal_count=243 147 96 121 26 63 33 56 65 24 31 32 33 27 32 29 19 19
is_linear=0
shrinkage=0.0101131


Tree=17
num_leaves=21
num_cat=0
split_feature=4 4 4 4 4 1 0 4 4 4 4 4 4 4 4 1 9 12 7 14
split_gain=4040.31 814.493 509.089 234.389 110.457 105.094 91.2663 51.5017 26.3576 18.2719 11.4444 10.4277 4.55979 4.52187 4.04462 3.49404 0.60187 0.487392 0.431382 0.138976
threshold=13.850000000000003 3.8000000000000003 19.700000000000006 9.0500000000000025 16.750000000000004 0.90000000000000013 29.650000000000002 11.750000000000002 6.6500000000000012 21.100000000000005 15.050000000000002 18.350000000000005 7.6500000000000012 10.250000000000002 12.950000000000001 5.0500000000000007 18.750000000000004 48.000000000000007 0.082000000000000017 240.80000000000004
decision_type=2 2 2 2 2 2 2 2 2 2 2 2 2 2 2 2 2 2 2 2
left_child=1 5 4 8 10 -1 9 13 15 -4 -2 -6 -10 16 -9 -3 -5 -14 -13 -15
right_child=2 3 6 7 11 -7 -8 14 12 -11 -12 18 17 19 -16 -17 -18 -19 -20 -21
leaf_value=-0.10840632093199862 0.015109225315418116 -0.049087576738701039 0.065667580028750921 -0.021775547843591821 0.041257914568454179 -0.065122443232450769 0.11156303718993132 -0.0023178960538774991 -0.034894938153047561 0.083391427166059517 0.027406095770588022 0.051383065525639544 -0.029011271640881769 -0.011953324076822874 0.0055156809947002946 -0.041455593867708855 -0.018242893389654111 -0.025669082588704446 0.054489165669221858 -0.013736327297745956
leaf_weight=12.000000000000002 15.000000000000002 10.000000000000002 13.000000000000002 9.0000000000000018 12.999999999999998 10.999999999999998 8.9999999999999982 13.000000000000002 14.999999999999998 10.999999999999998 15.999999999999998 9.0000000000000018 9.0000000000000018 9.0000000000000018 13.999999999999998 15.999999999999998 10.999999999999998 8.9999999999999982 9.9999999999999982 8.9999999999999982
leaf_count=12 15 10 13 9 13 11 9 13 15 11 16 9 9 9 14 16 11 9 10 9
internal_value=0 -0.0324349 0.0519177 -0.0221823 0.0350621 -0.0877074 0.0840955 -0.00893541 -0.0367762 0.0737928 0.0214564 0.0482421 -0.0307752 -0.0165233 0.00174399 -0.044392 -0.0198332 -0.027341 0.0530194 -0.0128452
internal_weight=0 147 96 124 63 23 33 65 59 24 31 32 33 38 27 26 20 18 19 18
internal_count=243 147 96 124 63 23 33 65 59 24 31 32 33 38 27 26 20 18 19 18
is_linear=0
shrinkage=0.0101131


Tree=18
num_leaves=20
num_cat=0
split_feature=4 4 4 4 1 4 0 4 4 4 4 4 4 4 4 4 7 4 7
split_gain=3959.01 798.214 498.844 209.659 129.351 108.234 89.4299 37.4145 31.7935 17.9042 11.2324 10.2179 4.38039 3.96323 3.30192 2.6372 0.4227 0.299873 0.264736
threshold=13.850000000000003 4.5000000000000009 19.700000000000006 9.6500000000000004 0.90000000000000013 16.750000000000004 29.650000000000002 11.750000000000002 7.3500000000000005 21.100000000000005 15.450000000000001 18.350000000000005 5.9500000000000011 12.950000000000001 8.4500000000000011 11.050000000000002 0.082000000000000017 10.050000000000002 0.36450000000000005
decision_type=2 2 2 2 2 2 2 2 2 2 2 2 2 2 2 2 2 2 2
left_child=1 4 5 8 -1 10 9 15 12 -4 18 -7 -3 -9 -10 17 -13 -5 -2
right_child=2 3 6 7 -6 11 -8 13 14 -11 -12 16 -14 -15 -16 -17 -18 -19 -20
leaf_value=-0.10731005136561271 0.014834909881134138 -0.044081520624440811 0.065003508670968838 -0.018371536352629485 -0.062056265808753924 0.040840688117429018 0.11043486561641193 -0.0022944559718309 -0.029815221499403254 0.082548127293410725 0.028402760458131622 0.05086345775513082 -0.036701591296791888 0.0054599027600695047 -0.023301709353966121 -0.010611777493214342 0.053938144023240195 -0.015820301380315201 0.017294345246023954
leaf_weight=12.000000000000002 9.0000000000000053 17 13.000000000000002 9.0000000000000053 13.999999999999998 12.999999999999998 8.9999999999999982 13.000000000000002 14.999999999999998 10.999999999999998 12.999999999999998 9.0000000000000018 15.999999999999998 13.999999999999998 17 9.9999999999999982 9.9999999999999982 9.9999999999999982 8.9999999999999982
leaf_count=12 9 17 13 9 14 13 9 13 15 11 13 9 16 14 17 10 10 10 9
internal_value=0 -0.0321069 0.0513927 -0.0211827 -0.0829445 0.0347076 0.0832451 -0.0068406 -0.0335388 0.0730465 0.0212394 0.0477543 -0.0405041 0.00172635 -0.0263554 -0.0148166 0.0524833 -0.0170293 0.0160651
internal_weight=0 147 96 121 26 63 33 56 65 24 31 32 33 27 32 29 19 19 18
internal_count=243 147 96 121 26 63 33 56 65 24 31 32 33 27 32 29 19 19 18
is_linear=0
shrinkage=0.0101131


Tree=19
num_leaves=21
num_cat=0
split_feature=4 4 4 4 4 1 0 4 4 4 4 4 4 4 4 17 9 12 7 5
split_gain=3879.34 782.38 488.806 225.072 106.056 100.791 87.6303 49.4235 25.2825 17.5439 11.0193 10.0123 4.37801 4.33541 3.88348 3.73931 0.581597 0.477665 0.414194 0.165166
threshold=13.850000000000003 3.8000000000000003 19.700000000000006 9.0500000000000025 16.750000000000004 0.90000000000000013 29.650000000000002 11.750000000000002 6.6500000000000012 21.100000000000005 15.050000000000002 18.350000000000005 7.6500000000000012 10.250000000000002 12.950000000000001 20.250000000000004 18.750000000000004 48.000000000000007 0.082000000000000017 8.3500000000000032
decision_type=2 2 2 2 2 2 2 2 2 2 2 2 2 2 2 2 2 2 2 2
left_child=1 5 4 8 10 -1 9 13 15 -4 -2 -6 -10 16 -9 -3 -5 -14 -13 -15
right_child=2 3 6 7 11 -7 -8 14 12 -11 -12 18 17 19 -16 -17 -18 -19 -20 -21
leaf_value=-0.1062248677227179 0.014796460744487202 -0.04733306707480147 0.064346151133217053 -0.021336325423951835 0.04042768061607372 -0.063836341752266712 0.10931809322225258 -0.0022712530237160508 -0.034194118296408595 0.081713354984129863 0.026862779165333774 0.050349101129428829 -0.02844566639216187 -0.013555483865940314 0.0054046885922241659 -0.039652070266366801 -0.017863721485208237 -0.025137275456734959 0.053392692772503553 -0.011612942028156435
leaf_weight=12.000000000000002 15.000000000000002 13.000000000000002 13.000000000000002 9.0000000000000018 12.999999999999998 10.999999999999998 8.9999999999999982 13.000000000000002 14.999999999999998 10.999999999999998 15.999999999999998 9.0000000000000018 9.0000000000000018 9.0000000000000018 13.999999999999998 12.999999999999998 10.999999999999998 8.9999999999999982 9.9999999999999982 8.9999999999999982
leaf_count=12 15 13 13 9 13 11 9 13 15 11 16 9 9 9 14 13 11 9 10 9
internal_value=0 -0.0317822 0.050873 -0.0217338 0.0343566 -0.0859542 0.0824032 -0.00875283 -0.0360346 0.0723079 0.0210246 0.0472714 -0.0301573 -0.0161861 0.00170889 -0.0434935 -0.019427 -0.0267923 0.0519525 -0.0125846
internal_weight=0 147 96 124 63 23 33 65 59 24 31 32 33 38 27 26 20 18 19 18
internal_count=243 147 96 124 63 23 33 65 59 24 31 32 33 38 27 26 20 18 19 18
is_linear=0
shrinkage=0.0101131


Tree=20
num_leaves=21
num_cat=0
split_feature=4 4 4 4 4 1 2 4 4 4 4 4 4 4 4 17 9 12 7 14
split_gain=3801.28 766.636 478.97 220.543 103.951 98.7629 85.8953 48.429 24.7737 14.7548 13.4282 7.29636 4.28991 4.24817 3.80533 3.66407 0.569894 0.468053 0.250797 0.130935
threshold=13.850000000000003 3.8000000000000003 19.700000000000006 9.0500000000000025 16.950000000000003 0.90000000000000013 29.050000000000004 11.750000000000002 6.6500000000000012 21.100000000000005 15.450000000000001 18.450000000000003 7.6500000000000012 10.250000000000002 12.950000000000001 20.250000000000004 18.750000000000004 48.000000000000007 0.36450000000000005 240.80000000000004
decision_type=2 2 2 2 2 2 2 2 2 2 2 2 2 2 2 2 2 2 2 2
left_child=1 5 4 8 10 -1 9 13 15 -4 18 -6 -10 16 -9 -3 -5 -14 -2 -15
right_child=2 3 6 7 11 -7 -8 14 12 -11 -12 -13 17 19 -16 -17 -18 -19 -20 -21
leaf_value=-0.10515065668482702 0.014535264454924314 -0.046854404904812352 0.063695442502870958 -0.021120563165044855 0.041924737294196178 -0.063190791659758994 0.10631728561736406 -0.0022482846709856686 -0.033848323447421794 0.080049954234013732 0.028689629657401183 0.051997860663695571 -0.028158011240660346 -0.011591630984810582 0.0053500329263798489 -0.039251083099370719 -0.017683073737127644 -0.024883076462676339 0.016929155877934792 -0.013322280677769562
leaf_weight=12.000000000000002 9.0000000000000018 13.000000000000002 13.000000000000002 9.0000000000000018 13.000000000000002 10.999999999999998 9.9999999999999982 13.000000000000002 14.999999999999998 9.9999999999999982 14.999999999999998 17 9.0000000000000018 9.0000000000000018 13.999999999999998 12.999999999999998 10.999999999999998 8.9999999999999982 8.9999999999999982 8.9999999999999982
leaf_count=12 9 13 13 9 13 11 10 13 15 10 15 17 9 9 14 13 11 9 9 9
internal_value=0 -0.0314608 0.0503586 -0.021514 0.0340092 -0.0850849 0.0815699 -0.00866432 -0.0356702 0.0708079 0.0216226 0.0476337 -0.0298523 -0.0160224 0.00169161 -0.0430537 -0.0192305 -0.0265214 0.0157327 -0.0124573
internal_weight=0 147 96 124 63 23 33 65 59 23 33 30 33 38 27 26 20 18 18 18
internal_count=243 147 96 124 63 23 33 65 59 23 33 30 33 38 27 26 20 18 18 18
is_linear=0
shrinkage=0.0101131


Tree=21
num_leaves=22
num_cat=0
split_feature=4 4 4 4 4 0 5 4 4 4 4 4 4 4 4 4 4 13 4 4 4
split_gain=4101.08 828.832 553.206 186.157 135.399 95.1551 78.5299 30.2722 24.5638 17.1257 14.8737 11.3448 5.4355 4.51822 3.68271 1.94636 1.94489 1.60857 1.42347 1.00705 0.903093
threshold=13.450000000000001 3.0500000000000003 19.700000000000006 9.0500000000000025 16.750000000000004 29.650000000000002 -1.2499999999999998 6.6500000000000012 11.750000000000002 21.100000000000005 15.050000000000002 18.350000000000005 4.9500000000000011 11.050000000000002 7.6500000000000012 15.900000000000002 14.250000000000002 19.550000000000004 19.150000000000002 9.6500000000000004 8.1500000000000004
decision_type=2 2 2 2 2 2 2 2 2 2 2 2 2 2 2 2 2 2 2 2 2
left_child=1 6 4 7 10 9 -1 12 13 -4 16 -6 -3 19 -9 -12 -2 -14 -13 -5 -16
right_child=2 3 5 8 11 -7 -8 14 -10 -11 15 18 17 -15 20 -17 -18 -19 -20 -21 -22
leaf_value=-0.10938467337017947 0.009383906413040044 -0.049919939921454957 0.062814951847195058 -0.019962373290639226 0.039666145504111031 0.10859886010245866 -0.071965473319560158 -0.03328015789848858 0.00030520290329803958 0.080748581709952125 0.021954503735028708 0.049087608132228032 -0.043985085720399449 -0.0096962352257259701 -0.029254005421135116 0.028611338376696212 0.015865308819136257 -0.038489737589726507 0.054538445275444686 -0.015815836444027575 -0.024924984294017724
leaf_weight=12.000000000000002 10.000000000000002 8.9999999999999982 12.000000000000002 10.000000000000002 13.999999999999998 9.9999999999999982 10.999999999999998 17 14.999999999999998 9.9999999999999982 9.0000000000000018 11.000000000000002 9.0000000000000018 10.999999999999998 9.0000000000000018 8.9999999999999982 8.9999999999999982 13.999999999999998 8.9999999999999982 14.999999999999998 10.999999999999998
leaf_count=12 10 9 12 10 14 10 11 17 15 10 9 11 9 11 9 9 9 14 9 15 11
internal_value=0 -0.0358786 0.0478189 -0.0252192 0.032084 0.0827297 -0.0914907 -0.0360482 -0.0105679 0.0709685 0.018696 0.0466527 -0.0432516 -0.0150982 -0.0298177 0.0252837 0.0124544 -0.0406411 0.051542 -0.0174749 -0.0268738
internal_weight=0 143 103 120 71 32 23 69 51 22 37 34 32 36 37 18 19 23 20 25 20
internal_count=246 143 103 120 71 32 23 69 51 22 37 34 32 36 37 18 19 23 20 25 20
is_linear=0
shrinkage=0.0101131


Tree=22
num_leaves=22
num_cat=0
split_feature=4 4 4 4 4 4 5 4 4 4 4 4 4 4 4 4 4 13 4 4 4
split_gain=4018.56 812.153 542.073 182.411 132.674 93.2404 76.9497 29.6631 24.0695 16.7811 14.5744 11.1165 5.32613 4.4273 3.60859 1.90719 1.90575 1.57621 1.39483 0.986786 0.884921
threshold=13.450000000000001 3.0500000000000003 19.700000000000006 9.0500000000000025 16.750000000000004 23.650000000000002 -1.2499999999999998 6.6500000000000012 11.750000000000002 21.100000000000005 15.050000000000002 18.350000000000005 4.9500000000000011 11.050000000000002 7.6500000000000012 15.900000000000002 14.250000000000002 19.550000000000004 19.150000000000002 9.6500000000000004 8.1500000000000004
decision_type=2 2 2 2 2 2 2 2 2 2 2 2 2 2 2 2 2 2 2 2 2
left_child=1 6 4 7 10 9 -1 12 13 -4 16 -6 -3 19 -9 -12 -2 -14 -13 -5 -16
right_child=2 3 5 8 11 -7 -8 14 -10 -11 15 18 17 -15 20 -17 -18 -19 -20 -21 -22
leaf_value=-0.10827851134096539 0.0092890116294836612 -0.049415126545553759 0.062179728190052158 -0.019760503724471818 0.039265015520674185 0.10750065513685877 -0.071237720549688965 -0.032943604581212003 0.00030211650771334717 0.079932009119250566 0.021732490036717081 0.048591207328013829 -0.043540289216708543 -0.0095981815624083412 -0.028958176196503919 0.028322007852292875 0.015704871638227497 -0.038100503371697791 0.053986929339548247 -0.015655895784036419 -0.024672928997531006
leaf_weight=12.000000000000002 10.000000000000002 8.9999999999999982 12.000000000000002 10.000000000000002 13.999999999999998 9.9999999999999982 10.999999999999998 17 14.999999999999998 9.9999999999999982 9.0000000000000018 11.000000000000002 9.0000000000000018 10.999999999999998 9.0000000000000018 8.9999999999999982 8.9999999999999982 13.999999999999998 8.9999999999999982 14.999999999999998 10.999999999999998
leaf_count=12 10 9 12 10 14 10 11 17 15 10 9 11 9 11 9 9 9 14 9 15 11
internal_value=0 -0.0355157 0.0473353 -0.0249642 0.0317595 0.0818931 -0.0905655 -0.0356837 -0.010461 0.0702508 0.0185069 0.0461809 -0.0428142 -0.0149456 -0.0295162 0.025028 0.0123285 -0.0402301 0.0510207 -0.0172981 -0.0266021
internal_weight=0 143 103 120 71 32 23 69 51 22 37 34 32 36 37 18 19 23 20 25 20
internal_count=246 143 103 120 71 32 23 69 51 22 37 34 32 36 37 18 19 23 20 25 20
is_linear=0
shrinkage=0.0101131


Tree=23
num_leaves=22
num_cat=0
split_feature=4 4 4 4 4 0 5 4 4 4 4 4 4 4 4 4 4 4 13 4 4
split_gain=3937.74 781.17 551.165 165.693 139.74 91.3642 75.4012 29.0662 19.0694 16.575 16.4434 10.9269 5.21896 4.33821 3.53597 2.48924 2.30234 1.79108 1.54449 0.966931 0.867115
threshold=13.350000000000003 3.0500000000000003 19.700000000000006 9.0500000000000025 16.750000000000004 29.650000000000002 -1.2499999999999998 6.6500000000000012 11.750000000000002 14.800000000000002 21.100000000000005 18.000000000000004 4.9500000000000011 11.050000000000002 7.6500000000000012 15.900000000000002 18.950000000000003 14.15 19.550000000000004 9.6500000000000004 8.1500000000000004
decision_type=2 2 2 2 2 2 2 2 2 2 2 2 2 2 2 2 2 2 2 2 2
left_child=1 6 4 7 9 10 -1 12 13 17 -4 -6 -3 19 -9 -11 -13 -2 -14 -5 -16
right_child=2 3 5 8 11 -7 -8 14 -10 15 -12 16 18 -15 20 -17 -18 -19 -20 -21 -22
leaf_value=-0.10718353328386253 0.0076250622102760329 -0.048915419119046302 0.061550930334074487 -0.019560675559643553 0.036826970203706198 0.10641356010083343 -0.070517324025172051 -0.032610454836621075 -0.00050460524956398556 0.02085964194230918 0.079123697609862848 0.046524992808743094 -0.043099990556161448 -0.0095011194316251719 -0.028665337943802483 0.028035603470871067 0.052829631204406563 0.013844663084916383 -0.037715205361419722 -0.015497572298507716 -0.024423422479397848
leaf_weight=12.000000000000002 9.0000000000000018 8.9999999999999982 12.000000000000002 10.000000000000002 9.9999999999999982 9.9999999999999982 10.999999999999998 17 12.999999999999998 11.000000000000002 9.9999999999999982 13.000000000000002 9.0000000000000018 10.999999999999998 9.0000000000000018 8.9999999999999982 10.999999999999998 9.9999999999999982 13.999999999999998 14.999999999999998 10.999999999999998
leaf_count=12 9 9 12 10 10 10 11 17 13 11 10 13 9 11 9 9 11 10 14 15 11
internal_value=0 -0.0357336 0.0460694 -0.0252242 0.0307283 0.0810649 -0.0896497 -0.0353228 -0.0110033 0.0176635 0.0695404 0.0457139 -0.0423813 -0.0147944 -0.0292177 0.0240895 0.0494158 0.0108989 -0.0398233 -0.0171232 -0.026333
internal_weight=0 141 105 118 73 32 23 69 49 39 22 34 32 36 37 20 24 19 23 25 20
internal_count=246 141 105 118 73 32 23 69 49 39 22 34 32 36 37 20 24 19 23 25 20
is_linear=0
shrinkage=0.0101131


Tree=24
num_leaves=22
num_cat=0
split_feature=4 4 4 4 4 4 5 4 4 4 4 4 4 4 4 4 4 4 1 4 4
split_gain=3858.52 779.788 520.464 175.132 127.378 89.6047 73.8839 28.4813 23.1018 14.0032 10.7071 9.62597 5.11395 4.25091 3.46481 2.25601 1.83241 1.82746 1.23907 0.947475 0.849668
threshold=13.450000000000001 3.0500000000000003 19.700000000000006 9.0500000000000025 16.750000000000004 23.400000000000002 -1.2499999999999998 6.6500000000000012 11.750000000000002 15.050000000000002 18.000000000000004 20.750000000000004 4.9500000000000011 11.050000000000002 7.6500000000000012 18.950000000000003 14.250000000000002 15.900000000000002 5.4500000000000011 9.6500000000000004 8.1500000000000004
decision_type=2 2 2 2 2 2 2 2 2 2 2 2 2 2 2 2 2 2 2 2 2
left_child=1 6 4 7 9 11 -1 12 13 16 -6 -4 -3 19 -9 -12 -2 -11 -14 -5 -16
right_child=2 3 5 8 10 -7 -8 14 -10 17 15 -13 18 -15 20 -17 -18 -19 -20 -21 -22
leaf_value=-0.10609962909509255 0.0090990994625621165 -0.048420765135842307 0.060106107372215639 -0.019362868061476839 0.03645455731159751 0.10209477614527331 -0.069804214045573756 -0.032280673633360943 0.00029320251360727032 0.021301779631191033 0.046054502396332846 0.07415581978813518 -0.041879673030797204 -0.0094050386961275594 -0.028375461731103495 0.052295388762389851 0.015390289836655751 0.027752094693174183 -0.037164558222486828 -0.015340850074483339 -0.024176439423893976
leaf_weight=12.000000000000002 10.000000000000002 8.9999999999999982 10.000000000000002 10.000000000000002 9.9999999999999982 11.999999999999998 10.999999999999998 17 14.999999999999998 9.0000000000000018 13.000000000000002 9.9999999999999982 11.000000000000002 10.999999999999998 9.0000000000000018 10.999999999999998 8.9999999999999982 8.9999999999999982 11.999999999999998 14.999999999999998 10.999999999999998
leaf_count=12 10 9 10 10 10 12 11 17 15 9 13 10 11 11 9 11 9 9 12 15 11
internal_value=0 -0.0348014 0.0463832 -0.0244622 0.031121 0.0802451 -0.0887431 -0.0349656 -0.0102513 0.0181357 0.0452516 0.0671329 -0.0419527 -0.0146448 -0.0289222 0.0489161 0.0120795 0.0245277 -0.0394206 -0.0169501 -0.0260667
internal_weight=0 143 103 120 71 32 23 69 51 37 34 20 32 36 37 24 19 18 23 25 20
internal_count=246 143 103 120 71 32 23 69 51 37 34 20 32 36 37 24 19 18 23 25 20
is_linear=0
shrinkage=0.0101131


Tree=25
num_leaves=22
num_cat=0
split_feature=4 4 4 4 4 0 5 4 4 4 4 4 4 4 4 4 4 13 4 4 4
split_gain=3781.02 750.027 529.176 159.063 134.146 87.9561 72.3971 27.9082 18.2887 15.913 15.7902 10.5048 5.01105 4.16537 3.39508 2.38716 1.71855 1.50023 1.31417 0.928411 0.832572
threshold=13.350000000000003 3.0500000000000003 19.700000000000006 9.0500000000000025 16.750000000000004 29.650000000000002 -1.2499999999999998 6.6500000000000012 11.750000000000002 14.800000000000002 21.100000000000005 18.350000000000005 4.9500000000000011 11.050000000000002 7.6500000000000012 15.900000000000002 14.15 19.550000000000004 19.150000000000002 9.6500000000000004 8.1500000000000004
decision_type=2 2 2 2 2 2 2 2 2 2 2 2 2 2 2 2 2 2 2 2 2
left_child=1 6 4 7 9 10 -1 12 13 16 -4 -6 -3 19 -9 -11 -2 -14 -13 -5 -16
right_child=2 3 5 8 11 -7 -8 14 -10 15 -12 18 17 -15 20 -17 -18 -19 -20 -21 -22
leaf_value=-0.10502668545616826 0.0074757285940811732 -0.047931114232957178 0.060296980905639452 -0.019167060977495886 0.038071111149060609 0.10430501698244062 -0.069098315211680597 -0.031954227500177616 -0.00050246743341348982 0.020444151288825527 0.077517150679993208 0.04714054487263316 -0.04225123469628924 -0.0093099296570341213 -0.028088516483373922 0.02747145312305135 0.013568110344376588 -0.036944348431048123 0.05237791877811529 -0.015185712957899725 -0.023931953857743823
leaf_weight=12.000000000000002 9.0000000000000018 8.9999999999999982 12.000000000000002 10.000000000000002 13.999999999999998 9.9999999999999982 10.999999999999998 17 12.999999999999998 11.000000000000002 9.9999999999999982 11.000000000000002 9.0000000000000018 10.999999999999998 9.0000000000000018 8.9999999999999982 9.9999999999999982 13.999999999999998 8.9999999999999982 14.999999999999998 10.999999999999998
leaf_count=12 9 9 12 10 14 10 11 17 13 11 10 11 9 11 9 9 10 14 9 15 11
internal_value=0 -0.0350153 0.0451433 -0.0247175 0.0301114 0.0794337 -0.0878457 -0.034612 -0.010784 0.0173108 0.0681261 0.044794 -0.0415284 -0.0144967 -0.0286298 0.0236071 0.0106826 -0.0390219 0.0494988 -0.0167786 -0.0258031
internal_weight=0 141 105 118 73 32 23 69 49 39 22 34 32 36 37 20 19 23 20 25 20
internal_count=246 141 105 118 73 32 23 69 49 39 22 34 32 36 37 20 19 23 20 25 20
is_linear=0
shrinkage=0.0101131


Tree=26
num_leaves=22
num_cat=0
split_feature=4 4 4 4 4 0 5 4 4 4 4 4 4 4 4 4 4 4 13 4 4
split_gain=3704.94 734.934 518.527 155.862 131.447 86.1862 70.9403 27.3466 17.9207 15.5928 15.4724 10.3285 4.91022 4.08155 3.32675 2.33913 2.15966 1.68397 1.47004 0.90973 0.815819
threshold=13.350000000000003 3.0500000000000003 19.700000000000006 9.0500000000000025 16.750000000000004 29.650000000000002 -1.2499999999999998 6.6500000000000012 11.750000000000002 14.800000000000002 21.100000000000005 18.000000000000004 4.9500000000000011 11.050000000000002 7.6500000000000012 15.900000000000002 18.950000000000003 14.15 19.550000000000004 9.6500000000000004 8.1500000000000004
decision_type=2 2 2 2 2 2 2 2 2 2 2 2 2 2 2 2 2 2 2 2 2
left_child=1 6 4 7 9 10 -1 12 13 17 -4 -6 -3 19 -9 -11 -13 -2 -14 -5 -16
right_child=2 3 5 8 11 -7 -8 14 -10 15 -12 16 18 -15 20 -17 -18 -19 -20 -21 -22
leaf_value=-0.10396459306698855 0.0074001307404896188 -0.04744641283274776 0.059687222564702068 -0.018973234055224907 0.035700915672890264 0.10325022946731344 -0.068399554316116731 -0.031631082823989715 -0.00049738616589194314 0.020237408618193981 0.076733257387781056 0.045140275217009848 -0.041823971208436297 -0.0092157825606675355 -0.027804473268686458 0.027193650096463469 0.05124650372854625 0.01343090283468148 -0.036570742624856822 -0.015032144473219418 -0.023689940355631219
leaf_weight=12.000000000000002 9.0000000000000018 8.9999999999999982 12.000000000000002 10.000000000000002 9.9999999999999982 9.9999999999999982 10.999999999999998 17 12.999999999999998 11.000000000000002 9.9999999999999982 13.000000000000002 9.0000000000000018 10.999999999999998 9.0000000000000018 8.9999999999999982 10.999999999999998 9.9999999999999982 13.999999999999998 14.999999999999998 10.999999999999998
leaf_count=12 9 9 12 10 10 10 11 17 13 11 10 13 9 11 9 9 11 10 14 15 11
internal_value=0 -0.0346612 0.0446868 -0.0244675 0.0298069 0.0786304 -0.0869573 -0.034262 -0.010675 0.0171357 0.0674372 0.044341 -0.0411085 -0.0143501 -0.0283402 0.0233684 0.0479401 0.0105745 -0.0386273 -0.016609 -0.0255422
internal_weight=0 141 105 118 73 32 23 69 49 39 22 34 32 36 37 20 24 19 23 25 20
internal_count=246 141 105 118 73 32 23 69 49 39 22 34 32 36 37 20 24 19 23 25 20
is_linear=0
shrinkage=0.0101131


Tree=27
num_leaves=22
num_cat=0
split_feature=4 4 4 4 4 4 5 4 4 4 4 4 4 4 4 4 4 4 13 4 4
split_gain=3630.38 720.145 508.093 152.726 128.802 84.4992 69.5127 26.7963 17.5601 15.279 10.1206 9.06002 4.81142 3.99942 3.2598 2.29206 2.11678 1.65009 1.44047 0.891425 0.799404
threshold=13.350000000000003 3.0500000000000003 19.700000000000006 9.0500000000000025 16.750000000000004 23.400000000000002 -1.2499999999999998 6.6500000000000012 11.750000000000002 14.800000000000002 18.000000000000004 20.750000000000004 4.9500000000000011 11.050000000000002 7.6500000000000012 15.900000000000002 18.850000000000005 14.15 19.550000000000004 9.6500000000000004 8.1500000000000004
decision_type=2 2 2 2 2 2 2 2 2 2 2 2 2 2 2 2 2 2 2 2 2
left_child=1 6 4 7 9 11 -1 12 13 17 -6 -4 -3 19 -9 -11 -12 -2 -14 -5 -16
right_child=2 3 5 8 10 -7 -8 14 -10 15 16 -13 18 -15 20 -17 -18 -19 -20 -21 -22
leaf_value=-0.10291324262745231 0.0073252974398660495 -0.046966613251111622 0.058284943509826596 -0.018781367042188121 0.03533989069969639 0.099053248477085895 -0.067707859904976381 -0.031311205849888543 -0.00049235626048461305 0.020032756741449404 0.044179667295902829 0.071915364097511481 -0.041401028757504718 -0.00912258748896266 -0.027523302083560925 0.026918655609930366 0.050224957884469144 0.013295082860678677 -0.036200914413914487 -0.014880128948589701 -0.023450374697750687
leaf_weight=12.000000000000002 9.0000000000000018 8.9999999999999982 10.000000000000002 10.000000000000002 9.9999999999999982 11.999999999999998 10.999999999999998 17 12.999999999999998 11.000000000000002 11.000000000000002 9.9999999999999982 9.0000000000000018 10.999999999999998 9.0000000000000018 8.9999999999999982 12.999999999999998 9.9999999999999982 13.999999999999998 14.999999999999998 10.999999999999998
leaf_count=12 9 9 10 10 10 12 11 17 13 11 11 10 9 11 9 9 13 10 14 15 11
internal_value=0 -0.0343107 0.0442349 -0.0242201 0.0295055 0.0778352 -0.086078 -0.0339156 -0.010567 0.0169624 0.0438926 0.065102 -0.0406928 -0.014205 -0.0280536 0.0231321 0.0474553 0.0104676 -0.0382367 -0.016441 -0.0252839
internal_weight=0 141 105 118 73 32 23 69 49 39 34 20 32 36 37 20 24 19 23 25 20
internal_count=246 141 105 118 73 32 23 69 49 39 34 20 32 36 37 20 24 19 23 25 20
is_linear=0
shrinkage=0.0101131


Tree=28
num_leaves=19
num_cat=0
split_feature=4 4 4 4 4 4 4 4 4 4 4 4 4 1 4 4 4 4
split_gain=3056.72 612.277 495.362 122.691 113.69 107.918 50.7947 16.7791 13.3298 12.6847 9.82753 4.38628 2.84068 2.13436 1.68191 1.66869 1.18148 0.642303
threshold=13.15 3.8000000000000003 18.450000000000003 22.300000000000001 8.8500000000000032 -0.69999999999999984 15.450000000000001 11.050000000000002 20.250000000000004 6.8500000000000005 16.950000000000003 14.500000000000002 12.050000000000002 5.4500000000000011 7.6500000000000012 16.050000000000004 13.850000000000003 9.9000000000000021
decision_type=2 2 2 2 2 2 2 2 2 2 2 2 2 2 2 2 2 2
left_child=1 5 6 8 9 -1 11 17 -4 13 15 16 -9 -3 -11 -8 -2 -6
right_child=2 4 3 -5 7 -7 10 12 -10 14 -12 -13 -14 -15 -16 -17 -18 -19
leaf_value=-0.098758073909896563 0.0061748489185525909 -0.040103611199938501 0.049341290370079074 0.092987207231546076 -0.018144087221497358 -0.058633167799493728 0.023275769344969978 -0.0077926288368767322 0.06345007303549316 -0.03026346500254852 0.038137184412312397 0.01740490097142431 -0.00049449103582950831 -0.03440293166028683 -0.025524176651628767 0.029284775597381994 0.011226326213171075 -0.014895730908115776
leaf_weight=12.000000000000002 9.0000000000000053 13.000000000000002 16.000000000000004 12.999999999999998 13.000000000000002 15.999999999999998 10.000000000000005 12.000000000000002 11.999999999999998 14.000000000000002 10.999999999999998 8.9999999999999982 9.9999999999999982 13.999999999999998 17 8.9999999999999982 9.9999999999999982 11.999999999999998
leaf_count=12 9 13 16 13 13 16 10 12 12 14 11 9 10 14 17 9 10 12
internal_value=0 -0.0338125 0.0404058 0.0673115 -0.0226071 -0.0758312 0.0213857 -0.0109169 0.0553891 -0.03208 0.0305288 0.0115891 -0.00447539 -0.0371485 -0.027665 0.0261229 0.00883378 -0.0165852
internal_weight=0 133 99 41 105 28 58 47 28 58 30 28 22 27 31 19 19 25
internal_count=232 133 99 41 105 28 58 47 28 58 30 28 22 27 31 19 19 25
is_linear=0
shrinkage=0.0101131


Tree=29
num_leaves=19
num_cat=0
split_feature=4 4 4 4 4 4 4 4 4 4 4 4 4 3 4 4 4 4
split_gain=2995.21 599.956 485.393 120.222 111.403 105.747 49.7726 16.4415 13.0616 12.4294 9.62977 4.29802 2.7861 1.92512 1.64807 1.63511 1.15771 0.629377
threshold=13.15 3.8000000000000003 18.450000000000003 22.300000000000001 8.8500000000000032 -0.69999999999999984 15.450000000000001 11.050000000000002 20.250000000000004 6.8500000000000005 16.950000000000003 14.500000000000002 11.750000000000002 2.5000000000000004 7.6500000000000012 16.050000000000004 13.850000000000003 9.9000000000000021
decision_type=2 2 2 2 2 2 2 2 2 2 2 2 2 2 2 2 2 2
left_child=1 5 6 8 9 -1 11 17 -4 13 15 16 -9 -3 -11 -8 -2 -6
right_child=2 4 3 -5 7 -7 10 12 -10 14 -12 -13 -14 -15 -16 -17 -18 -19
leaf_value=-0.097759374775686705 0.0061124060506597255 -0.039796958935896243 0.048842316396576019 0.09204686217951738 -0.017960602878488496 -0.058040227587811972 0.023040393624768979 -0.0087552981303866337 0.062808427997409738 -0.02995742054449314 0.037751519408159247 0.017228894931076055 -0.0014355386723135196 -0.034352092339806156 -0.02526605711955646 0.028988635086644 0.011112799995743881 -0.014745096582823572
leaf_weight=12.000000000000002 9.0000000000000053 12.000000000000002 16.000000000000004 12.999999999999998 13.000000000000002 15.999999999999998 10.000000000000005 9.0000000000000018 11.999999999999998 14.000000000000002 10.999999999999998 8.9999999999999982 12.999999999999998 14.999999999999998 17 8.9999999999999982 9.9999999999999982 11.999999999999998
leaf_count=12 9 12 16 13 13 16 10 9 12 14 11 9 13 15 17 9 10 12
internal_value=0 -0.0334705 0.0399971 0.0666308 -0.0223785 -0.0750643 0.0211694 -0.0108065 0.0548289 -0.0317556 0.0302201 0.0114719 -0.00443013 -0.0367728 -0.0273852 0.0258588 0.00874444 -0.0164175
internal_weight=0 133 99 41 105 28 58 47 28 58 30 28 22 27 31 19 19 25
internal_count=232 133 99 41 105 28 58 47 28 58 30 28 22 27 31 19 19 25
is_linear=0
shrinkage=0.0101131


Tree=30
num_leaves=20
num_cat=0
split_feature=4 3 4 4 4 5 4 4 4 4 4 4 4 3 4 4 12 4 4
split_gain=2934.94 588.4 475.626 125.292 117.802 80.7367 48.771 19.3178 16.1106 12.7988 9.43599 4.21153 3.32257 3.14426 2.7409 1.60221 1.46378 1.13441 0.616712
threshold=13.15 0.65000000000000002 18.450000000000003 8.8500000000000032 22.300000000000001 -1.2499999999999998 15.450000000000001 6.4500000000000011 11.050000000000002 20.250000000000004 16.950000000000003 14.500000000000002 7.6500000000000012 1.7500000000000002 12.050000000000002 16.050000000000004 46.850000000000001 13.850000000000003 9.9000000000000021
decision_type=2 2 2 2 2 2 2 2 2 2 2 2 2 2 2 2 2 2 2
left_child=1 5 6 7 9 -1 11 13 18 -4 15 17 16 -3 -10 -8 -9 -2 -5
right_child=2 3 4 8 -6 -7 10 12 14 -11 -12 -13 -14 -15 -16 -17 -18 -19 -20
leaf_value=-0.10241176571275806 0.0060505947292356817 -0.044396194396048895 0.048348386963186087 -0.017778973738290769 0.091116026270599004 -0.064090754752877718 0.022807396967720682 -0.033356698813917403 -0.0076437916845246996 0.062173271447314216 0.037369755655750958 0.017054669007922001 -0.025010547919815152 -0.03670726689226872 -0.00047497361641824713 0.028695489298270788 -0.02824027050357707 0.011000421659712186 -0.014595985125392407
leaf_weight=9.0000000000000018 9.0000000000000053 10.000000000000002 16.000000000000004 13.000000000000002 12.999999999999998 14.999999999999998 10.000000000000005 12.000000000000002 12.000000000000002 11.999999999999998 10.999999999999998 8.9999999999999982 17 11.999999999999998 9.9999999999999982 8.9999999999999982 10.999999999999998 9.9999999999999982 11.999999999999998
leaf_count=9 9 10 16 13 13 15 10 12 12 12 11 9 17 12 10 9 11 10 12
internal_value=0 -0.0331321 0.0395927 -0.0231505 0.065957 -0.0784632 0.0209553 -0.0325908 -0.0106972 0.0542745 0.0299145 0.0113559 -0.0284034 -0.0402033 -0.00438533 0.0255973 -0.0309105 0.00865602 -0.0162515
internal_weight=0 133 99 109 41 24 58 62 47 28 30 28 40 22 22 19 23 19 25
internal_count=232 133 99 109 41 24 58 62 47 28 30 28 40 22 22 19 23 19 25
is_linear=0
shrinkage=0.0101131


Tree=31
num_leaves=21
num_cat=0
split_feature=4 1 4 4 4 4 4 4 4 4 4 4 4 4 12 4 1 4 1 0
split_gain=2875.88 576.77 466.055 156.455 115.432 47.7896 34.6326 20.2162 12.5412 9.24611 8.40608 4.12678 2.68818 1.56997 1.55979 1.54334 1.16765 1.11158 0.515308 0.273856
threshold=13.15 1.6000000000000003 18.450000000000003 8.4500000000000011 22.300000000000001 15.450000000000001 4.5000000000000009 11.050000000000002 20.250000000000004 16.950000000000003 6.6500000000000012 14.500000000000002 11.750000000000002 16.050000000000004 40.800000000000004 9.2500000000000018 5.4500000000000011 13.850000000000003 6.7500000000000009 12.450000000000001
decision_type=2 2 2 2 2 2 2 2 2 2 2 2 2 2 2 2 2 2 2 2
left_child=1 -1 5 6 8 11 -3 15 -4 13 16 17 -9 -7 -12 -5 -8 -2 -16 -17
right_child=2 3 4 7 -6 9 10 12 -10 -11 14 -13 -14 -15 18 19 -18 -19 -20 -21
leaf_value=-0.087808864823257726 0.0059894085249632828 -0.050808286715333995 0.047859453848710938 -0.020120177964955559 0.090194603805035814 0.022576757071991641 -0.038832253814989739 -0.0085894634037611862 0.061544538287352284 0.036991851948540648 -0.031528386811643078 0.016882204583731152 -0.0013994886232412884 0.028405307425117536 -0.028102991330992009 -0.016511923910640332 -0.034158045279955501 0.010889180114434481 -0.024827750848901688 -0.014074579367208323
leaf_weight=17 9.0000000000000053 11.999999999999998 16.000000000000004 11.000000000000002 12.999999999999998 10.000000000000005 11.000000000000002 9.0000000000000018 11.999999999999998 10.999999999999998 10.000000000000002 8.9999999999999982 12.999999999999998 8.9999999999999982 11.000000000000002 10.000000000000002 10.999999999999998 9.9999999999999982 8.9999999999999982 8.9999999999999982
leaf_count=17 9 12 16 11 13 10 11 9 12 11 10 9 13 9 11 10 11 10 9 9
internal_value=0 -0.032797 0.0391923 -0.0247346 0.06529 0.0207434 -0.0353212 -0.0117046 0.0537256 0.029612 -0.0317467 0.011241 -0.00434099 0.0253384 -0.0282633 -0.0171044 -0.0364961 0.00856848 -0.0266299 -0.0153578
internal_weight=0 133 99 116 41 58 64 52 28 30 52 28 22 19 30 30 22 19 20 19
internal_count=232 133 99 116 41 58 64 52 28 30 52 28 22 19 30 30 22 19 20 19
is_linear=0
shrinkage=0.0101131


Tree=32
num_leaves=21
num_cat=0
split_feature=4 3 4 4 4 5 4 4 4 4 4 4 4 3 4 4 4 12 4 4
split_gain=2818.01 565.254 456.676 120.293 113.109 78.3524 46.8279 18.5212 15.4576 12.2951 9.06004 4.04374 3.20296 3.00032 2.64463 2.04119 1.53838 1.41157 1.08921 0.595338
threshold=13.15 0.65000000000000002 18.450000000000003 8.8500000000000032 22.300000000000001 -1.2499999999999998 15.450000000000001 6.4500000000000011 11.050000000000002 20.450000000000003 16.950000000000003 14.500000000000002 7.6500000000000012 1.7500000000000002 12.050000000000002 19.350000000000005 16.050000000000004 46.850000000000001 13.850000000000003 9.9000000000000021
decision_type=2 2 2 2 2 2 2 2 2 2 2 2 2 2 2 2 2 2 2 2
left_child=1 5 6 7 9 -1 11 13 19 15 16 18 17 -3 -10 -4 -8 -9 -2 -5
right_child=2 3 4 8 -6 -7 10 12 14 -11 -12 -13 -14 -15 -16 -17 -18 -19 -20 -21
leaf_value=-0.10048817509102675 0.0059288409080672649 -0.043481881187291536 0.045410092162562248 -0.017421049142794236 0.089282497599355526 -0.062737330016849349 0.022348449586390724 -0.03269572774986685 -0.0074978086913388385 0.062924037046798359 0.036617769710186543 0.016711484245769469 -0.024500797314991968 -0.035970939034239452 -0.0004560180600564123 0.052069645342194056 0.028118060803145151 -0.027671407109927802 0.010779063063764756 -0.01429372734907676
leaf_weight=9.0000000000000018 9.0000000000000053 10.000000000000002 10.000000000000005 13.000000000000002 12.999999999999998 14.999999999999998 10.000000000000005 12.000000000000002 12.000000000000002 8.9999999999999982 10.999999999999998 8.9999999999999982 17 11.999999999999998 9.9999999999999982 8.9999999999999982 8.9999999999999982 10.999999999999998 9.9999999999999982 11.999999999999998
leaf_count=9 9 10 10 13 13 15 10 12 12 9 11 9 17 12 10 9 9 11 10 12
internal_value=0 -0.0324654 0.038796 -0.0226821 0.0646298 -0.0768959 0.0205337 -0.0319321 -0.0104798 0.0531823 0.0293125 0.0111274 -0.027832 -0.039386 -0.00429709 0.0485661 0.0250822 -0.0302935 0.00848183 -0.0159203
internal_weight=0 133 99 109 41 24 58 62 47 28 30 28 40 22 22 19 19 23 19 25
internal_count=232 133 99 109 41 24 58 62 47 28 30 28 40 22 22 19 19 23 19 25
is_linear=0
shrinkage=0.0101131


Tree=33
num_leaves=20
num_cat=0
split_feature=4 1 4 4 4 4 4 4 4 4 4 4 4 4 12 4 1 1 0
split_gain=2761.3 554.663 447.486 150.133 110.833 45.8856 33.1688 19.3976 12.0642 8.87773 8.04503 3.96661 2.5937 1.50742 1.50626 1.47878 1.10949 0.500196 0.2679
threshold=13.15 1.6000000000000003 18.450000000000003 8.4500000000000011 22.300000000000001 15.450000000000001 4.5000000000000009 11.050000000000002 20.250000000000004 16.950000000000003 6.6500000000000012 14.250000000000002 11.750000000000002 16.050000000000004 40.800000000000004 9.2500000000000018 5.4500000000000011 6.7500000000000009 12.450000000000001
decision_type=2 2 2 2 2 2 2 2 2 2 2 2 2 2 2 2 2 2 2
left_child=1 -1 5 6 8 11 -3 15 -4 13 16 -2 -9 -7 -12 -5 -8 -16 -17
right_child=2 3 4 7 -6 9 10 12 -10 -11 14 -13 -14 -15 17 18 -18 -19 -20
leaf_value=-0.086084319445980897 0.0077179470616026936 -0.049757407632483819 0.046890991356205267 -0.019707997424615951 0.088379618630530149 0.022122450641928616 -0.038026586917203897 -0.0084267818888662128 0.060313279077702509 0.036247470583530644 -0.03090378165250408 0.015410120691524403 -0.001364291271042449 0.027833718357320604 -0.0275413905912315 -0.016187751572002928 -0.03347014340541505 -0.024314668299554192 -0.013777165048004046
leaf_weight=17 16.000000000000004 11.999999999999998 16.000000000000004 11.000000000000002 12.999999999999998 10.000000000000005 11.000000000000002 9.0000000000000018 11.999999999999998 10.999999999999998 10.000000000000002 11.999999999999998 12.999999999999998 8.9999999999999982 11.000000000000002 10.000000000000002 10.999999999999998 8.9999999999999982 8.9999999999999982
leaf_count=17 16 12 16 11 13 10 11 9 12 11 10 12 13 9 11 10 11 9 9
internal_value=0 -0.032137 0.0384036 -0.0242306 0.0639762 0.020326 -0.0346011 -0.0114666 0.0526445 0.0290161 -0.031103 0.0110148 -0.00425363 0.0248285 -0.0276952 -0.016756 -0.0357493 -0.0260901 -0.0150463
internal_weight=0 133 99 116 41 58 64 52 28 30 52 28 22 19 30 30 22 20 19
internal_count=232 133 99 116 41 58 64 52 28 30 52 28 22 19 30 30 22 20 19
is_linear=0
shrinkage=0.0101131


Tree=34
num_leaves=21
num_cat=0
split_feature=4 1 4 4 4 4 4 4 4 4 4 4 4 4 4 4 12 1 4 4
split_gain=2705.74 543.501 438.482 147.131 108.603 44.9623 30.5113 21.6997 11.8547 8.69908 6.64686 3.89891 2.55173 2.45602 1.97284 1.47709 1.28105 1.08716 1.05695 0.451881
threshold=13.15 1.6000000000000003 18.450000000000003 8.1500000000000004 22.300000000000001 15.450000000000001 4.5000000000000009 11.050000000000002 20.450000000000003 16.950000000000003 6.6500000000000012 14.500000000000002 12.050000000000002 9.0500000000000025 19.350000000000005 16.050000000000004 43.20000000000001 5.4500000000000011 13.850000000000003 9.9000000000000021
decision_type=2 2 2 2 2 2 2 2 2 2 2 2 2 2 2 2 2 2 2 2
left_child=1 -1 5 6 8 11 -3 13 14 15 17 18 -9 -5 -4 -7 -12 -8 -2 -15
right_child=2 3 4 7 -6 9 10 12 -10 -11 16 -13 -14 19 -16 -17 -18 -19 -20 -21
leaf_value=-0.085213772124406464 0.005790838528083736 -0.049254230150808202 0.044476694611889252 -0.02136232833152003 0.087485866376723856 0.021898737695670956 -0.037642041503697009 -0.0073546247552001608 0.061677807672338346 0.035880915773047417 -0.03055681336174907 0.016386656255718595 -0.00043761020960040128 -0.016839423060870912 0.051023667766832578 0.027552251691493009 -0.026066178907413595 -0.033131674582758931 0.010568675945198761 -0.013997669038330916
leaf_weight=17 9.0000000000000053 11.999999999999998 10.000000000000005 9.9999999999999982 12.999999999999998 10.000000000000005 11.000000000000002 12.000000000000002 8.9999999999999982 10.999999999999998 11.000000000000002 8.9999999999999982 9.9999999999999982 11.000000000000002 8.9999999999999982 8.9999999999999982 15.999999999999998 10.999999999999998 9.9999999999999982 11.999999999999998
leaf_count=17 9 12 10 10 13 10 11 12 9 11 11 9 10 11 9 9 16 11 10 12
internal_value=0 -0.0318121 0.0380153 -0.0239856 0.0633292 0.0201205 -0.0348004 -0.0119907 0.0521121 0.0287227 -0.0312602 0.0109034 -0.00421062 -0.0171772 0.0475793 0.0245775 -0.0278963 -0.0353878 0.00830573 -0.0153571
internal_weight=0 133 99 116 41 58 61 55 28 30 49 28 22 33 19 19 27 22 19 23
internal_count=232 133 99 116 41 58 61 55 28 30 49 28 22 33 19 19 27 22 19 23
is_linear=0
shrinkage=0.0101131


Tree=35
num_leaves=22
num_cat=0
split_feature=4 4 4 4 4 1 0 4 4 4 4 4 4 4 4 1 17 4 4 0 4
split_gain=2856.25 573.001 415.967 139.795 103.755 103.417 74.8989 27.3838 16.7185 12.0231 11.6181 3.73063 3.3404 3.32115 3.18555 1.67698 1.23504 1.09276 0.766215 0.60202 0.418716
threshold=13.550000000000002 4.5000000000000009 19.700000000000006 8.8500000000000032 17.250000000000004 0.90000000000000013 29.650000000000002 11.750000000000002 15.050000000000002 21.100000000000005 6.8500000000000005 11.050000000000002 18.450000000000003 12.950000000000001 16.250000000000004 6.7500000000000009 20.250000000000004 14.250000000000002 19.150000000000002 12.450000000000001 7.9500000000000011
decision_type=2 2 2 2 2 2 2 2 2 2 2 2 2 2 2 2 2 2 2 2 2
left_child=1 5 4 10 8 -1 9 11 17 -4 16 19 -6 -9 -10 -12 -3 -2 -14 -5 -17
right_child=2 3 6 7 12 -7 -8 13 14 -11 15 -13 18 -15 -16 20 -18 -19 -20 -21 -22
leaf_value=-0.088674567963794457 0.0088282762381435148 -0.038054661050992741 0.054379794102541776 -0.017188290070694962 0.037823045068224363 -0.049798966194110651 0.097289797139474957 -0.003134454156549049 0.021066338413585149 0.069714662575103822 -0.02885895787282242 -0.0081205185479956629 0.043248872720136756 0.0042433239032661904 0.028345907221165669 -0.02547961690678404 -0.033359089505936829 0.013687102198706773 0.047180519312571105 -0.014070157531108457 -0.022461665386406315
leaf_weight=14.000000000000002 9.0000000000000018 9.0000000000000018 10.000000000000005 11.000000000000002 10.000000000000002 13.999999999999998 8.9999999999999982 13.000000000000002 16.000000000000004 10.999999999999998 11.000000000000002 9.9999999999999982 12.000000000000002 11.999999999999998 9.9999999999999982 9.0000000000000018 15.999999999999998 9.9999999999999982 8.9999999999999982 14.999999999999998 9.9999999999999982
leaf_count=14 9 9 10 11 10 14 9 13 16 11 11 10 12 12 10 9 16 10 9 15 10
internal_value=0 -0.0281776 0.0409922 -0.0182661 0.0284051 -0.0692382 0.0728784 -0.00772416 0.0185972 0.062414 -0.0299579 -0.0133707 0.0426416 0.000406895 0.0238667 -0.0257137 -0.0350503 0.0113859 0.0449351 -0.0153897 -0.0238919
internal_weight=0 144 106 116 76 28 30 61 45 21 55 36 31 25 26 30 25 19 21 26 19
internal_count=250 144 106 116 76 28 30 61 45 21 55 36 31 25 26 30 25 19 21 26 19
is_linear=0
shrinkage=0.0101131


Tree=36
num_leaves=22
num_cat=0
split_feature=4 4 4 4 4 1 2 4 4 4 4 4 4 4 4 1 17 4 4 2 4
split_gain=2798.78 561.47 407.596 136.982 101.667 101.336 73.3918 26.8327 16.3821 11.7812 11.3843 3.65556 3.27318 3.25432 3.12145 1.64323 1.21019 1.07077 0.750799 0.589906 0.410291
threshold=13.550000000000002 4.5000000000000009 19.700000000000006 8.8500000000000032 17.250000000000004 0.90000000000000013 30.200000000000003 11.750000000000002 15.050000000000002 21.100000000000005 6.8500000000000005 11.050000000000002 18.450000000000003 12.950000000000001 16.250000000000004 6.7500000000000009 20.250000000000004 14.250000000000002 19.150000000000002 12.450000000000001 7.9500000000000011
decision_type=2 2 2 2 2 2 2 2 2 2 2 2 2 2 2 2 2 2 2 2 2
left_child=1 5 4 10 8 -1 9 11 17 -4 16 19 -6 -9 -10 -12 -3 -2 -14 -5 -17
right_child=2 3 6 7 12 -7 -8 13 14 -11 15 -13 18 -15 -16 20 -18 -19 -20 -21 -22
leaf_value=-0.087777831777761814 0.008739000882888294 -0.037669834003297924 0.05382987718089411 -0.017014472417352693 0.037440559703723411 -0.049295365818099672 0.096305965879751418 -0.0031027565337310224 0.020853300323759344 0.069009670285242158 -0.02856712017592997 -0.0080383997916610335 0.042811513388505189 0.0042004129146253968 0.028059258983097451 -0.025221955591479901 -0.033021738372276212 0.013548691113307757 0.046703407721292625 -0.013927870369323251 -0.022234521212658637
leaf_weight=14.000000000000002 9.0000000000000018 9.0000000000000018 10.000000000000005 11.000000000000002 10.000000000000002 13.999999999999998 8.9999999999999982 13.000000000000002 16.000000000000004 10.999999999999998 11.000000000000002 9.9999999999999982 12.000000000000002 11.999999999999998 9.9999999999999982 9.0000000000000018 15.999999999999998 9.9999999999999982 8.9999999999999982 14.999999999999998 9.9999999999999982
leaf_count=14 9 9 10 11 10 14 9 13 16 11 11 10 12 12 10 9 16 10 9 15 10
internal_value=0 -0.0278926 0.0405776 -0.0180814 0.0281178 -0.068538 0.0721414 -0.00764605 0.0184092 0.0617828 -0.029655 -0.0132354 0.0422104 0.00040278 0.0236254 -0.0254537 -0.0346959 0.0112707 0.0444807 -0.0152341 -0.0236503
internal_weight=0 144 106 116 76 28 30 61 45 21 55 36 31 25 26 30 25 19 21 26 19
internal_count=250 144 106 116 76 28 30 61 45 21 55 36 31 25 26 30 25 19 21 26 19
is_linear=0
shrinkage=0.0101131


Tree=37
num_leaves=22
num_cat=0
split_feature=4 4 4 4 4 1 0 4 4 4 4 4 4 4 4 1 17 4 4 0 4
split_gain=2742.46 550.172 399.394 134.226 99.6213 99.2969 71.9149 26.2928 16.0524 11.5441 11.1552 3.582 3.20732 3.18884 3.05864 1.61016 1.18585 1.04923 0.735694 0.578036 0.402035
threshold=13.550000000000002 4.5000000000000009 19.700000000000006 8.8500000000000032 17.250000000000004 0.90000000000000013 29.650000000000002 11.750000000000002 15.050000000000002 21.100000000000005 6.8500000000000005 11.050000000000002 18.450000000000003 12.950000000000001 16.250000000000004 6.7500000000000009 20.250000000000004 14.250000000000002 19.150000000000002 12.450000000000001 7.9500000000000011
decision_type=2 2 2 2 2 2 2 2 2 2 2 2 2 2 2 2 2 2 2 2 2
left_child=1 5 4 10 8 -1 9 11 17 -4 16 19 -6 -9 -10 -12 -3 -2 -14 -5 -17
right_child=2 3 6 7 12 -7 -8 13 14 -11 15 -13 18 -15 -16 20 -18 -19 -20 -21 -22
leaf_value=-0.086890164920245302 0.0086506281769763195 -0.037288900710820222 0.053285522939262586 -0.016842412617765909 0.037061942079895958 -0.04879685860834778 0.095332070058176649 -0.0030713795300144854 0.020642416742007015 0.0683118049745218 -0.028278234007550144 -0.0079571114169712815 0.042378577496259943 0.0041579357358758184 0.02777550974227758 -0.024966900292739371 -0.032687798737708128 0.013411680221398414 0.046231122939887015 -0.013787022044353538 -0.022009675333261421
leaf_weight=14.000000000000002 9.0000000000000018 9.0000000000000018 10.000000000000005 11.000000000000002 10.000000000000002 13.999999999999998 8.9999999999999982 13.000000000000002 16.000000000000004 10.999999999999998 11.000000000000002 9.9999999999999982 12.000000000000002 11.999999999999998 9.9999999999999982 9.0000000000000018 15.999999999999998 9.9999999999999982 8.9999999999999982 14.999999999999998 9.9999999999999982
leaf_count=14 9 9 10 11 10 14 9 13 16 11 11 10 12 12 10 9 16 10 9 15 10
internal_value=0 -0.0276106 0.0401673 -0.0178986 0.0278335 -0.0678449 0.0714119 -0.00756873 0.018223 0.0611581 -0.0293551 -0.0131016 0.0417835 0.000398707 0.0233865 -0.0251963 -0.034345 0.0111568 0.0440309 -0.01508 -0.0234112
internal_weight=0 144 106 116 76 28 30 61 45 21 55 36 31 25 26 30 25 19 21 26 19
internal_count=250 144 106 116 76 28 30 61 45 21 55 36 31 25 26 30 25 19 21 26 19
is_linear=0
shrinkage=0.0101131


Tree=38
num_leaves=22
num_cat=0
split_feature=4 4 4 4 4 1 0 4 4 4 4 4 1 4 4 1 17 4 0 18 4
split_gain=2687.27 539.1 391.427 131.525 109.737 97.2987 60.2369 25.7637 15.7294 10.9308 4.13657 3.50991 3.39429 3.12467 2.9971 1.57776 1.16199 1.02811 0.566405 0.534053 0.393945
threshold=13.550000000000002 4.5000000000000009 20.250000000000004 8.8500000000000032 17.250000000000004 0.90000000000000013 29.650000000000002 11.750000000000002 15.050000000000002 6.8500000000000005 18.850000000000005 11.050000000000002 17.800000000000004 12.950000000000001 16.250000000000004 6.7500000000000009 20.250000000000004 14.250000000000002 12.450000000000001 76.600000000000009 7.9500000000000011
decision_type=2 2 2 2 2 2 2 2 2 2 2 2 2 2 2 2 2 2 2 2 2
left_child=1 5 4 9 8 -1 12 11 17 16 -6 18 -4 -9 -10 -11 -3 -2 -5 -12 -17
right_child=2 3 6 7 10 -7 -8 13 14 15 19 -13 -14 -15 -16 20 -18 -19 -20 -21 -22
leaf_value=-0.086011473704816127 0.0085631491461523584 -0.036911818579333316 0.057910423363278354 -0.016672092918050035 0.038365374988962565 -0.048303391694021085 0.094368029308285903 -0.0030403197577718419 0.020433665968788896 -0.027992268024405267 0.043678996912878326 -0.0078766450456700544 0.066720952816995166 0.004115888248171733 0.027494629602194197 -0.024714423953852652 -0.032357236546011227 0.013276054213071454 -0.013647598250610692 0.047199728504975537 -0.021787102312069481
leaf_weight=14.000000000000002 9.0000000000000018 9.0000000000000018 9.0000000000000053 11.000000000000002 15.999999999999998 13.999999999999998 8.9999999999999982 13.000000000000002 16.000000000000004 11.000000000000002 9.0000000000000018 9.9999999999999982 8.9999999999999982 11.999999999999998 9.9999999999999982 9.0000000000000018 15.999999999999998 9.9999999999999982 14.999999999999998 8.9999999999999982 9.9999999999999982
leaf_count=14 9 9 9 11 16 14 9 13 16 11 9 10 9 12 10 9 16 10 15 9 10
internal_value=0 -0.0273314 0.0397611 -0.0177176 0.0283996 -0.0671588 0.0730028 -0.00749219 0.0180387 -0.0290582 0.0421119 -0.0129691 0.0623176 0.000394675 0.02315 -0.0249415 -0.0339977 0.0110439 -0.0149275 0.0454408 -0.0231744
internal_weight=0 144 106 116 79 28 27 61 45 55 34 36 18 25 26 30 25 19 26 18 19
internal_count=250 144 106 116 79 28 27 61 45 55 34 36 18 25 26 30 25 19 26 18 19
is_linear=0
shrinkage=0.0101131


Tree=39
num_leaves=23
num_cat=0
split_feature=4 4 4 4 4 0 5 4 4 4 4 4 4 1 4 4 1 4 0 18 18 22
split_gain=2633.19 528.391 383.55 160.145 107.529 59.0248 55.7711 25.2453 19.383 15.4129 5.89875 4.05334 3.43928 3.32599 3.06179 2.93679 1.97457 1.00742 0.555008 0.523307 0.51532 0.388304
threshold=13.550000000000002 3.0500000000000003 20.250000000000004 8.8500000000000032 17.250000000000004 29.650000000000002 -1.2499999999999998 11.750000000000002 6.6500000000000012 15.050000000000002 4.9500000000000011 18.850000000000005 11.050000000000002 17.800000000000004 12.950000000000001 16.250000000000004 6.7500000000000009 14.250000000000002 12.450000000000001 76.600000000000009 20.250000000000004 0.41500000000000004
decision_type=2 2 2 2 2 2 2 2 2 2 2 2 2 2 2 2 2 2 2 2 2 2
left_child=1 6 4 8 9 13 -1 12 10 17 -3 -6 18 -4 -9 -11 -10 -2 -5 -13 -12 -18
right_child=2 3 5 7 11 -7 -8 14 16 15 20 19 -14 -15 -16 -17 21 -19 -20 -21 -22 -23
leaf_value=-0.092970962795019624 0.0084765548161611828 -0.042681529865291681 0.057324807400612257 -0.016503495345136759 0.037977396720529265 0.093413738617898562 -0.059659744438913906 -0.0030095740727978369 -0.028059441852296852 0.020227026078528866 -0.031685208619647881 0.043237294250192057 -0.0077969924200514493 0.066046240984178453 0.0040742659559437257 0.027216590354041732 -0.024468976064140602 0.013141800309979055 -0.01350958403955829 0.046722423498405226 -0.034967264633160335 -0.021562752136127239
leaf_weight=9.0000000000000018 9.0000000000000018 10.000000000000002 9.0000000000000053 11.000000000000002 15.999999999999998 8.9999999999999982 11.999999999999998 13.000000000000002 12.999999999999998 16.000000000000004 11.000000000000002 9.0000000000000018 9.9999999999999982 8.9999999999999982 11.999999999999998 9.9999999999999982 9.0000000000000018 9.9999999999999982 14.999999999999998 8.9999999999999982 8.9999999999999982 9.9999999999999982
leaf_count=9 9 10 9 11 16 9 12 13 13 16 11 9 10 9 12 10 9 10 15 9 9 10
internal_value=0 -0.027055 0.039359 -0.0190502 0.0281124 0.0722646 -0.0739381 -0.00741643 -0.0304962 0.0178563 -0.0363366 0.041686 -0.012838 0.0616875 0.000390684 0.0229159 -0.0250203 0.0109323 -0.0147766 0.0449813 -0.0331631 -0.0229401
internal_weight=0 144 106 123 79 27 21 61 62 45 30 34 36 18 25 26 32 19 26 18 20 19
internal_count=250 144 106 123 79 27 21 61 62 45 30 34 36 18 25 26 32 19 26 18 20 19
is_linear=0
shrinkage=0.0101131


Tree=40
num_leaves=23
num_cat=0
split_feature=4 4 4 4 4 0 5 4 4 4 4 4 4 4 4 4 1 4 4 0 19 4
split_gain=2580.21 517.758 375.899 156.922 93.685 67.6291 54.6488 24.7372 18.9929 15.1027 11.0462 5.78005 3.37007 3.05545 3.00018 2.8777 1.93483 0.987152 0.683199 0.54384 0.518699 0.384851
threshold=13.550000000000002 3.0500000000000003 19.700000000000006 8.8500000000000032 17.250000000000004 29.650000000000002 -1.2499999999999998 11.750000000000002 6.6500000000000012 15.050000000000002 21.100000000000005 4.9500000000000011 11.050000000000002 18.450000000000003 12.950000000000001 16.250000000000004 6.7500000000000009 14.250000000000002 19.150000000000002 12.450000000000001 1.4500000000000002 7.9500000000000011
decision_type=2 2 2 2 2 2 2 2 2 2 2 2 2 2 2 2 2 2 2 2 2 2
left_child=1 6 4 8 9 10 -1 12 11 17 -4 -3 19 -6 -9 -11 -10 -2 -15 -5 -13 -18
right_child=2 3 5 7 13 -7 -8 14 16 15 -12 20 -14 18 -16 -17 21 -19 -20 -21 -22 -23
leaf_value=-0.092030799993358822 0.0083908361457755067 -0.042249912717834376 0.051628285026901907 -0.016336602912284677 0.035915135994425501 0.092469101011480495 -0.059056428776363239 -0.0029791393598660679 -0.027775686514403222 0.02002247567307015 0.066326735689304389 -0.031188895524430538 -0.00771814531254718 0.041124532832075032 0.0040330645017543996 0.026941361860207409 -0.024230121171308388 0.013008903563865285 0.044837447355656777 -0.013372965909292458 -0.034464685744986276 -0.021336970664678937
leaf_weight=9.0000000000000018 9.0000000000000018 10.000000000000002 10.000000000000005 11.000000000000002 10.000000000000002 8.9999999999999982 11.999999999999998 13.000000000000002 12.999999999999998 16.000000000000004 10.999999999999998 10.000000000000002 9.9999999999999982 12.000000000000002 11.999999999999998 9.9999999999999982 9.0000000000000018 9.9999999999999982 8.9999999999999982 14.999999999999998 9.9999999999999982 9.9999999999999982
leaf_count=9 9 10 10 11 10 9 12 13 13 16 11 10 10 12 12 10 9 10 9 15 10 10
internal_value=0 -0.0267814 0.038961 -0.0188576 0.0269955 0.0692726 -0.0731904 -0.00734143 -0.0301878 0.0176757 0.059329 -0.0359692 -0.0127081 0.0405235 0.000386733 0.0226841 -0.0247673 0.0108217 0.0427169 -0.0146271 -0.0328277 -0.0227081
internal_weight=0 144 106 123 76 30 21 61 62 45 21 30 36 31 25 26 32 19 21 26 20 19
internal_count=250 144 106 123 76 30 21 61 62 45 21 30 36 31 25 26 32 19 21 26 20 19
is_linear=0
shrinkage=0.0101131


Tree=41
num_leaves=22
num_cat=0
split_feature=4 4 4 4 4 1 0 4 4 4 4 4 1 4 4 1 17 4 0 18 22
split_gain=2528.29 507.394 368.339 123.7 103.223 92.2917 56.6566 24.2395 14.7988 10.2787 3.89267 3.30226 3.19703 2.9398 2.8198 1.47993 1.12213 0.967288 0.532897 0.498549 0.379337
threshold=13.550000000000002 4.5000000000000009 20.250000000000004 8.8500000000000032 17.250000000000004 0.90000000000000013 29.650000000000002 11.750000000000002 15.050000000000002 6.8500000000000005 18.850000000000005 11.050000000000002 17.800000000000004 12.950000000000001 16.250000000000004 6.7500000000000009 20.250000000000004 14.250000000000002 12.450000000000001 76.600000000000009 0.41500000000000004
decision_type=2 2 2 2 2 2 2 2 2 2 2 2 2 2 2 2 2 2 2 2 2
left_child=1 5 4 9 8 -1 12 11 17 16 -6 18 -4 -9 -10 -11 -3 -2 -5 -12 -17
right_child=2 3 6 7 10 -7 -8 13 14 15 19 -13 -14 -15 -16 20 -18 -19 -20 -21 -22
leaf_value=-0.083510208629715699 0.0083059843616562611 -0.035835294782273416 0.056173479033939933 -0.01617139775601734 0.037210386270796619 -0.046785206043230887 0.091534011476851099 -0.0029490124052220395 0.019819994333749064 -0.027144559489607131 0.042371675630797884 -0.0076400955257265686 0.064724142452336292 0.0039922797542005766 0.026668917599591981 -0.023989512548271235 -0.031359827169514236 0.012877351196382322 -0.013237728951461004 0.04577363951818253 -0.021117226118721452
leaf_weight=14.000000000000002 9.0000000000000018 9.0000000000000018 9.0000000000000053 11.000000000000002 15.999999999999998 13.999999999999998 8.9999999999999982 13.000000000000002 16.000000000000004 11.000000000000002 9.0000000000000018 9.9999999999999982 8.9999999999999982 11.999999999999998 9.9999999999999982 9.0000000000000018 15.999999999999998 9.9999999999999982 14.999999999999998 8.9999999999999982 9.9999999999999982
leaf_count=14 9 9 9 11 16 14 9 13 16 11 9 10 9 12 10 9 16 10 15 9 10
internal_value=0 -0.0265105 0.038567 -0.0171837 0.0275456 -0.065149 0.0708135 -0.00726718 0.017497 -0.0281819 0.0408448 -0.0125796 0.0604507 0.000382822 0.0224547 -0.0241898 -0.0329718 0.0107123 -0.0144792 0.044074 -0.0224785
internal_weight=0 144 106 116 79 28 27 61 45 55 34 36 18 25 26 30 25 19 26 18 19
internal_count=250 144 106 116 79 28 27 61 45 55 34 36 18 25 26 30 25 19 26 18 19
is_linear=0
shrinkage=0.0101131


Tree=42
num_leaves=23
num_cat=0
split_feature=0 3 0 1 0 0 5 3 1 1 5 1 0 0 5 0 5 0 14 1 6 15
split_gain=2370.06 426.954 384.812 104.676 82.659 64.3753 33.4239 19.7636 15.4511 15.3327 13.0505 9.90587 7.66257 3.72991 3.27316 2.86136 2.78786 2.72806 2.28836 1.57885 1.19387 1.00145
threshold=16.050000000000004 -0.19999999999999998 23.950000000000003 7.8500000000000005 20.150000000000002 29.100000000000005 -1.2499999999999998 1.7500000000000002 16.450000000000003 13.900000000000002 9.3500000000000032 10.250000000000002 10.750000000000002 17.400000000000002 7.3000000000000016 12.250000000000002 5.2500000000000009 22.150000000000002 200.65000000000001 6.7500000000000009 88.100000000000009 1009.35
decision_type=2 2 2 2 2 2 2 2 2 2 2 2 2 2 2 2 2 2 2 2 2 2
left_child=1 6 4 7 11 8 -1 18 -4 -6 15 -2 16 -13 19 -5 -9 -11 -3 21 -12 -14
right_child=2 3 5 10 9 -7 -8 12 -10 17 20 13 14 -15 -16 -17 -18 -19 -20 -21 -22 -23
leaf_value=-0.087446640587520871 0.0041035022296441346 -0.034315962747860501 0.045781344022562467 -0.017708745896075608 0.02535407162574 0.08266978219428886 -0.060571742169270637 -0.034234178759003607 0.061184631940793065 0.034804863563741302 0.00046019067706322208 0.0093896871443251238 -0.023952425634867099 0.017442187021693728 -0.017737378375534154 -0.010512127264333674 -0.026637726059975511 0.042690699420820467 -0.041539941120271422 -0.021257791716430934 -0.0047487174714773766 -0.028611199464617484
leaf_weight=9.0000000000000018 13.999999999999998 9.0000000000000018 15.000000000000002 10.000000000000002 17 9.9999999999999982 9.9999999999999982 11.000000000000002 11.999999999999998 9.0000000000000018 9.0000000000000018 9.0000000000000018 9.0000000000000053 17 8.9999999999999982 12.999999999999998 8.9999999999999982 8.9999999999999982 8.9999999999999982 8.9999999999999982 8.9999999999999982 9.9999999999999982
leaf_count=9 14 9 15 10 17 10 10 11 12 9 9 9 9 17 9 13 9 9 9 9 9 10
internal_value=0 -0.0288663 0.0340603 -0.0215874 0.0208936 0.0607488 -0.0733042 -0.0286903 0.0526284 0.0322434 -0.00859403 0.0109621 -0.0257724 0.014655 -0.0230454 -0.0136414 -0.0308166 0.038749 -0.0379291 -0.0247511 -0.00214433 -0.0264052
internal_weight=0 135 112 116 75 37 19 75 27 35 41 40 57 26 37 23 20 18 18 28 18 19
internal_count=247 135 112 116 75 37 19 75 27 35 41 40 57 26 37 23 20 18 18 28 18 19
is_linear=0
shrinkage=0.0101131


Tree=43
num_leaves=21
num_cat=0
split_feature=4 4 4 4 4 4 4 4 4 4 4 4 4 4 17 4 4 13 13 18
split_gain=2364.81 423.609 385.216 113.389 82.002 42.9782 39.779 22.2263 20.7555 11.9208 9.78781 4.74886 4.27816 3.39891 3.24879 3.06109 1.72454 0.848177 0.304274 0.161133
threshold=13.15 3.0500000000000003 18.450000000000003 9.0500000000000025 21.100000000000005 15.450000000000001 -1.4999999999999998 23.400000000000002 6.4500000000000011 11.050000000000002 17.250000000000004 19.700000000000006 14.250000000000002 12.250000000000002 20.250000000000004 7.6500000000000012 16.250000000000004 19.050000000000004 19.950000000000003 12.750000000000002
decision_type=2 2 2 2 2 2 2 2 2 2 2 2 2 2 2 2 2 2 2 2
left_child=1 6 5 8 11 12 -1 -6 14 19 16 -4 -2 -11 -3 17 -7 -10 -17 -5
right_child=2 3 4 9 7 10 -8 -9 15 13 -12 -13 -14 -15 -16 18 -18 -19 -20 -21
leaf_value=-0.087150383009632557 0.0064189871952659979 -0.038664092956103104 0.041520770356446184 -0.01552376487230569 0.062949716264139324 0.02054081736130264 -0.058472420008099067 0.084392719213250589 -0.029104860794950727 -0.0072629874652826859 0.034729747254874661 0.05052826264270107 0.014306005929553556 0.00013806759546424474 -0.031850608794659827 -0.022650449727273321 0.025769684935834071 -0.025239655116685546 -0.020009988364758799 -0.013692618366423909
leaf_weight=9.0000000000000018 17.000000000000004 16.000000000000004 15.000000000000002 9.0000000000000018 11.000000000000002 14.000000000000002 10.999999999999998 8.9999999999999982 10.000000000000002 15.000000000000002 9.9999999999999982 9.9999999999999982 11.999999999999998 10.999999999999998 12.999999999999998 9.0000000000000018 11.999999999999998 13.999999999999998 8.9999999999999982 10.999999999999998
leaf_count=9 17 16 15 9 11 14 11 9 10 15 10 10 12 11 13 9 12 14 9 11
internal_value=0 -0.0283688 0.0345923 -0.0210162 0.0573373 0.0188453 -0.0713796 0.0726012 -0.0290297 -0.00864727 0.026226 0.0451248 0.0096828 -0.00413184 -0.0356105 -0.0244854 0.0229546 -0.0268508 -0.0213309 -0.014517
internal_weight=0 137 110 117 45 65 20 20 71 46 36 25 29 26 29 42 26 24 18 20
internal_count=247 137 110 117 45 65 20 20 71 46 36 25 29 26 29 42 26 24 18 20
is_linear=0
shrinkage=0.0101131


Tree=44
num_leaves=21
num_cat=0
split_feature=4 4 4 4 4 4 4 4 4 4 4 4 4 4 17 4 4 12 12 18
split_gain=2317.22 415.085 377.464 111.107 80.3519 42.1133 38.9786 21.7791 20.3378 11.6809 9.59086 4.6533 4.19207 3.33051 3.18341 2.99949 1.68984 1.0239 0.34368 0.157891
threshold=13.15 3.0500000000000003 18.450000000000003 9.0500000000000025 21.100000000000005 15.450000000000001 -1.4999999999999998 23.400000000000002 6.4500000000000011 11.050000000000002 17.250000000000004 19.700000000000006 14.250000000000002 12.250000000000002 20.250000000000004 7.6500000000000012 16.250000000000004 45.350000000000001 48.550000000000004 12.750000000000002
decision_type=2 2 2 2 2 2 2 2 2 2 2 2 2 2 2 2 2 2 2 2
left_child=1 6 5 8 11 12 -1 -6 14 19 16 -4 -2 -11 -3 17 -7 -10 -17 -5
right_child=2 3 4 9 7 10 -8 -9 15 13 -12 -13 -14 -15 -16 18 -18 -19 -20 -21
leaf_value=-0.086269078999425014 0.0063540735451739676 -0.038273093629592726 0.04110088300628232 -0.015366781440219541 0.062313133855989675 0.020333095088082072 -0.05788111548517863 0.083539305045193288 -0.028503723699791605 -0.0071895389366070745 0.034378542803630216 0.050017294125202484 0.014161334989649516 0.00013667140176231501 -0.031528515318817521 -0.022516877180312814 0.02550908657158776 -0.024303576087167173 -0.019712159488540524 -0.013554150998675709
leaf_weight=9.0000000000000018 17.000000000000004 16.000000000000004 15.000000000000002 9.0000000000000018 11.000000000000002 14.000000000000002 10.999999999999998 8.9999999999999982 13.000000000000002 15.000000000000002 9.9999999999999982 9.9999999999999982 11.999999999999998 10.999999999999998 12.999999999999998 9.0000000000000018 11.999999999999998 10.999999999999998 8.9999999999999982 10.999999999999998
leaf_count=9 17 16 15 9 11 14 11 9 13 15 10 10 12 11 13 9 12 11 9 11
internal_value=0 -0.0280819 0.0342424 -0.0208037 0.0567575 0.0186548 -0.0706578 0.071867 -0.0287361 -0.00855982 0.0259608 0.0446685 0.00958488 -0.00409005 -0.0352503 -0.0242378 0.0227225 -0.0265793 -0.0211152 -0.0143702
internal_weight=0 137 110 117 45 65 20 20 71 46 36 25 29 26 29 42 26 24 18 20
internal_count=247 137 110 117 45 65 20 20 71 46 36 25 29 26 29 42 26 24 18 20
is_linear=0
shrinkage=0.0101131


Tree=45
num_leaves=21
num_cat=0
split_feature=4 4 4 4 4 4 4 4 4 4 4 4 4 4 17 4 4 12 12 18
split_gain=2270.59 406.733 369.869 108.872 78.735 41.2659 38.1942 21.3409 19.9286 11.4459 9.39787 4.55967 4.10771 3.26349 3.11935 2.93913 1.65583 1.0033 0.336764 0.154714
threshold=13.15 3.0500000000000003 18.450000000000003 9.0500000000000025 21.100000000000005 15.450000000000001 -1.4999999999999998 23.400000000000002 6.4500000000000011 11.050000000000002 17.250000000000004 19.700000000000006 14.250000000000002 12.250000000000002 20.250000000000004 7.6500000000000012 16.250000000000004 45.350000000000001 48.550000000000004 12.750000000000002
decision_type=2 2 2 2 2 2 2 2 2 2 2 2 2 2 2 2 2 2 2 2
left_child=1 6 5 8 11 12 -1 -6 14 19 16 -4 -2 -11 -3 17 -7 -10 -17 -5
right_child=2 3 4 9 7 10 -8 -9 15 13 -12 -13 -14 -15 -16 18 -18 -19 -20 -21
